<?xml version="1.0"?>
<opencv_storage>
<opencv_ml_svm>
  <format>3</format>
  <svmType>C_SVC</svmType>
  <kernel>
    <type>LINEAR</type></kernel>
  <C>1.</C>
  <term_criteria><iterations>5000</iterations></term_criteria>
  <var_count>360</var_count>
  <class_count>7</class_count>
  <class_labels type_id="opencv-matrix">
    <rows>7</rows>
    <cols>1</cols>
    <dt>i</dt>
    <data>
      0 1 2 3 4 6 7</data></class_labels>
  <sv_total>21</sv_total>
  <support_vectors>
    <_>
      -6.40309241e-04 5.10690908e-04 -1.96628389e-03 2.30972786e-04
      -1.55939616e-03 -8.26481089e-04 -3.26215551e-04 9.57329583e-04
      1.09301973e-03 -5.11378865e-04 -1.28094491e-03 2.21907371e-03
      4.59132832e-04 6.48999005e-04 -1.36231049e-03 -1.32373173e-03
      6.99515978e-04 -9.25930799e-04 2.79726554e-03 -2.35944893e-03
      -3.64245451e-03 -5.58962068e-03 -6.76151179e-03 -1.85058417e-03
      -6.69448520e-04 -6.95054536e-04 5.40316221e-04 1.73572020e-03
      5.87156392e-04 -1.96749880e-03 -1.10346603e-03 2.26489408e-03
      1.57087739e-03 1.29939232e-03 -1.29294267e-03 -2.86119897e-03
      -1.44175603e-03 -4.06834017e-03 -4.58459370e-03 2.20573653e-04
      -1.60007403e-04 2.63864687e-03 -1.06629850e-04 6.72724273e-04
      -3.07653495e-03 -3.29902815e-03 2.35187181e-04 8.58841871e-04
      3.31145176e-03 4.42632270e-04 1.69046491e-03 8.38577689e-04
      -1.92741165e-03 -1.02399965e-03 -1.55536388e-03 -1.38735923e-03
      1.50195102e-03 -8.67062408e-05 3.85376601e-03 2.79329368e-03
      3.54051328e-04 1.97265786e-03 -6.05819281e-04 6.62082864e-04
      -2.51430250e-03 -2.76304176e-03 -1.12134323e-03 -5.84906898e-03
      -2.97939684e-03 4.72321379e-04 -7.94880209e-04 1.13085320e-03
      -8.71409138e-04 2.48216147e-05 -2.06255307e-03 -1.05315575e-03
      6.14652876e-04 -7.96458859e-04 1.16974616e-03 4.15422146e-05
      -5.71662269e-04 7.21925346e-04 -2.23086891e-03 -4.64424957e-04
      9.75544797e-04 1.98156748e-04 1.55227375e-03 -7.75029941e-04
      1.04428444e-03 1.72038539e-03 1.58346992e-03 3.46451742e-03
      1.98072972e-04 -2.34879367e-03 -4.21286002e-03 -5.79111464e-03
      2.07158597e-03 -3.56437464e-04 1.91178580e-03 3.50183179e-03
      -3.47714452e-03 -9.74872324e-04 -1.32636563e-03 9.19177255e-04
      2.96779297e-04 -3.28515045e-04 2.62547983e-04 -3.07069015e-04
      1.90551043e-03 -2.03984720e-03 6.71081012e-04 -1.28975639e-03
      -1.10867305e-03 -1.07365265e-03 -3.54243186e-03 -5.82600804e-03
      9.15075711e-04 -3.95713048e-03 -7.67414575e-04 1.98864844e-03
      2.12253188e-03 -2.37301900e-03 -1.30199008e-02 -3.44714802e-03
      7.77977693e-04 1.66374887e-03 2.24303614e-04 -1.84212346e-03
      5.38290828e-04 1.00581464e-03 5.64657908e-04 2.71452754e-03
      3.95367062e-03 1.12334359e-03 2.23957538e-03 5.36239706e-04
      -2.08326474e-05 -6.34856569e-03 -5.46360156e-03 -1.47678761e-03
      -2.77321297e-03 -6.30691473e-04 1.28022779e-03 -9.86400264e-05
      1.85988017e-03 1.91818399e-03 2.43178161e-04 -3.08561488e-03
      -5.10140182e-03 -2.91875261e-03 -3.10896058e-03 -2.18641805e-03
      6.54548081e-03 1.18359434e-03 2.96556717e-03 3.50739807e-03
      1.90044520e-03 -1.71049708e-03 -6.03124592e-03 -2.53288960e-03
      -1.33255275e-03 8.96949903e-04 8.02095223e-04 7.29325227e-04
      1.00874706e-04 -7.49872779e-05 4.29623964e-04 -1.81000412e-03
      -4.68443893e-03 -2.39467854e-03 -2.51419959e-03 2.96751410e-03
      1.76414882e-03 1.09914155e-03 9.02669039e-04 1.11094560e-03
      3.46689689e-04 4.82859468e-04 -5.95769321e-04 -1.84056920e-03
      -4.08027181e-03 -9.13330005e-04 2.67226575e-03 9.57980461e-04
      1.47754548e-03 1.60212081e-03 1.37140846e-03 1.90179527e-03
      -1.32325036e-03 -3.98833258e-03 -2.61085085e-03 -1.24495395e-03
      1.71072467e-03 1.32232427e-03 2.39764736e-03 1.69834797e-03
      1.01841672e-03 2.91014253e-03 3.12285614e-04 -2.80643417e-03
      -4.88142623e-03 6.01252657e-04 1.84522616e-03 1.44442846e-03
      3.33062792e-03 3.09366151e-03 1.56226696e-03 3.75649892e-03
      1.89536239e-03 -4.28793347e-03 -2.66610016e-03 -1.63328974e-03
      5.56164887e-04 3.26258159e-04 2.88045238e-04 -2.66794651e-03
      -3.94274510e-04 -3.01184761e-03 1.44055672e-03 -2.35501351e-03
      -3.44883767e-03 -1.10294786e-03 4.28477162e-03 1.73308689e-03
      2.97084311e-03 3.01025272e-03 1.50292052e-03 4.79301717e-03
      5.25050738e-04 -3.79859982e-03 -1.92346307e-03 -1.29395479e-03
      -1.71882473e-03 6.02067157e-04 -8.75207479e-04 1.43769110e-04
      3.40074592e-04 -6.35309843e-04 -1.84238260e-03 -1.95263757e-03
      -1.52214966e-03 -1.79661758e-04 6.26229262e-03 8.47411866e-04
      -9.83135658e-04 -1.12812209e-03 1.14674692e-03 -9.51064983e-04
      -4.03854065e-03 -2.26712134e-03 -2.63049570e-03 -1.92510185e-03
      1.39271922e-03 2.57892272e-04 -2.74747075e-03 -2.52469955e-03
      1.55524840e-03 -6.88617700e-04 -1.63547287e-03 -3.60552431e-03
      2.50061648e-03 1.43461759e-04 -9.01888998e-04 8.27300712e-04
      -4.86457662e-04 -1.59914081e-03 3.12152505e-03 5.53808501e-03
      4.82527865e-03 2.93945777e-03 -1.64008664e-03 1.28828583e-03
      -5.94583247e-03 -4.67726291e-04 -3.62477195e-03 -2.88086757e-03
      2.06984859e-03 4.01360216e-04 4.33622114e-03 -2.31711473e-03
      -3.25788860e-03 5.11571707e-04 -2.12348555e-03 1.98351126e-03
      -7.79294991e-04 -8.62664194e-04 1.59038277e-03 -7.49127357e-04
      2.09428091e-03 -3.67718260e-03 -2.22838670e-03 -3.33405379e-03
      -3.18963616e-03 2.36454164e-03 9.88400541e-04 -2.40871523e-04
      7.93601968e-04 -7.04534992e-04 -2.38805125e-03 -2.73877918e-03
      -3.26669760e-05 1.16828748e-03 -3.66841676e-03 2.05983152e-03
      -7.36387796e-04 -6.06089830e-04 1.60606497e-03 -1.11061346e-03
      4.10566898e-03 4.63701057e-04 -5.60407236e-04 6.45633787e-04
      -2.01285977e-04 1.97657524e-03 -9.25137836e-04 -2.24277563e-03
      -5.65239810e-04 -5.34601929e-03 3.51781957e-03 -1.59504183e-04
      -2.08274717e-03 -2.80698575e-03 2.07627635e-03 1.71962846e-03
      1.32265070e-03 1.06249156e-03 5.89095522e-04 1.71699305e-03
      -2.75686034e-03 -2.45256606e-03 -2.85093347e-03 -3.70942964e-03
      2.63924524e-03 1.42267335e-03 -8.35281855e-04 5.71739336e-04
      1.93372070e-05 -4.42275172e-03 -4.84103942e-03 -4.16703289e-03
      1.39213435e-03 2.16856995e-03 2.49770540e-03 1.49045815e-03
      -1.99967925e-03 -2.68858764e-03 -5.60345128e-04 -1.02500257e-03
      1.80208695e-03 6.63524377e-04 -3.60430829e-04 2.38410517e-04
      6.92870701e-04 4.03671898e-03 -6.33951044e-04 -1.20758254e-03
      1.13704358e-03 -3.22731026e-03 8.31532176e-04 -1.66560023e-03</_>
    <_>
      -1.20872352e-03 -4.73858882e-03 -4.74682404e-03 -1.87798607e-04
      1.68688910e-03 4.86328304e-02 6.54356331e-02 -1.12433277e-01
      -2.61668973e-02 3.10123079e-02 -6.49078712e-02 -9.56723059e-04
      -2.71180496e-02 1.71452342e-03 3.44422795e-02 2.25418480e-03
      -4.20411117e-03 -1.69567578e-02 2.42560240e-03 4.27055955e-02
      2.59749182e-02 6.48422446e-03 -1.46895424e-02 8.28039087e-03
      -9.75969154e-03 -1.08535644e-02 -2.94337096e-03 -7.63558736e-03
      -1.43081928e-03 -1.85905322e-02 4.31378372e-03 3.53430733e-02
      6.16138382e-03 7.42675364e-03 2.80463509e-02 -4.73609241e-03
      -1.24498166e-03 -2.94037233e-03 -4.92182048e-03 2.60137999e-03
      -2.37075631e-02 7.19383061e-02 -1.58953834e-02 2.26400583e-03
      5.92032564e-04 -3.06833908e-03 -5.96268335e-04 2.16718507e-03
      -6.70095021e-03 7.24530546e-03 8.13793205e-03 1.67797739e-03
      5.91338438e-04 1.12067233e-03 -1.74839501e-04 -6.82417944e-04
      6.65240979e-04 6.59995154e-03 3.32316794e-02 1.44303590e-02
      1.05629647e-02 2.98822355e-02 -1.89069065e-03 2.41598836e-03
      6.06985623e-03 3.66040249e-03 2.54551228e-03 7.20906258e-03
      -2.82738870e-03 7.50680920e-03 2.44030147e-04 -6.16282690e-03
      -7.73473270e-03 2.12938748e-02 -1.54039832e-02 -1.13975834e-02
      -1.20761886e-03 -5.62937232e-03 -1.96550274e-03 -1.35341100e-02
      7.92107359e-03 -2.92567238e-02 9.62659833e-04 2.45204591e-03
      2.87660025e-03 4.87378193e-03 2.21975986e-03 1.37309544e-02
      1.08371221e-03 -2.45049205e-02 2.67265768e-05 -3.93695608e-02
      3.21311615e-02 3.74101847e-03 8.74041021e-03 8.23835377e-03
      3.82299349e-03 1.15715964e-02 -4.67665523e-04 3.77608958e-04
      -1.11735973e-03 -6.75883144e-03 -5.95903164e-03 3.30215730e-02
      3.23116966e-02 -5.16121567e-04 2.01886427e-03 4.98128077e-03
      8.74419406e-04 1.91698074e-02 -6.79345848e-03 -3.26698204e-03
      -7.81330373e-03 2.09805532e-03 3.03320307e-03 -1.05150766e-03
      6.82002574e-04 -3.72609892e-03 -2.60463217e-03 -8.14417191e-03
      -4.35474562e-04 2.92448909e-03 -1.04075938e-03 1.47401933e-02
      -4.98455111e-03 -5.47752995e-03 9.26846266e-03 -1.65698919e-02
      -1.21455477e-03 -2.83541041e-03 -4.36889561e-04 -7.87776662e-04
      -6.28883252e-04 3.23173427e-03 3.50545277e-03 1.87806913e-03
      6.38083788e-03 -6.85334671e-03 2.23027775e-03 -2.16073822e-03
      -2.29771226e-03 7.77158933e-03 6.58063823e-03 3.21986945e-03
      1.56126707e-03 -2.33198423e-03 3.71393794e-03 -2.01689415e-02
      9.97434021e-04 -8.72539077e-03 -3.34818522e-03 -4.41968022e-03
      -7.80742196e-03 2.10942933e-03 6.06892677e-03 5.00219082e-03
      -3.22442316e-02 -7.40764616e-03 7.25207943e-03 -2.68206932e-03
      -3.88609245e-02 -6.25079544e-03 -1.01742437e-02 9.80963465e-04
      7.81476405e-03 7.48761883e-03 4.01413767e-03 8.60701967e-03
      5.90842776e-03 4.91974782e-03 2.82636862e-02 -4.17148788e-03
      -1.04119033e-02 -2.56661070e-03 -5.33200509e-04 1.09655212e-03
      3.20770731e-03 4.15411638e-03 4.82307840e-03 2.38872389e-03
      -1.22884074e-02 -8.52876995e-03 -1.13623859e-02 2.55894242e-03
      -2.87194047e-02 7.76389567e-03 2.56893411e-03 2.43638852e-03
      7.79567985e-03 -5.97138051e-03 -2.60937144e-03 -7.81772844e-03
      -1.31923761e-02 3.46887531e-03 2.75890483e-03 4.12187492e-03
      4.58623935e-03 7.36064976e-03 7.47224735e-03 3.13239917e-03
      -5.96061675e-03 -6.35360414e-03 -6.26541022e-03 -5.36072953e-03
      -3.19941412e-03 8.91242671e-05 1.98348775e-03 2.96568684e-03
      3.83107341e-03 -7.09054992e-03 2.38208031e-06 -3.92494462e-02
      -4.69809456e-05 -2.85971269e-04 -6.32616365e-03 -4.25038114e-03
      -2.98625557e-03 7.55090383e-04 2.52756174e-03 -7.93182384e-03
      5.51675120e-03 -3.17096966e-03 -1.12736933e-02 -2.59628263e-03
      -7.59547518e-04 -1.07092340e-03 2.28976551e-03 8.69782828e-03
      2.19123578e-03 4.89121675e-03 6.54025003e-03 6.02294400e-04
      3.09367687e-03 -5.15163585e-04 -1.68889540e-03 -5.23884455e-03
      -1.24049082e-03 8.48226529e-03 -2.06040079e-03 2.69429595e-03
      -5.58364904e-04 7.19836913e-03 4.82972525e-03 1.56357989e-03
      2.61450768e-03 -3.06306261e-04 -9.84261977e-04 -1.12174721e-02
      4.13883245e-03 -3.72768193e-03 -3.78491706e-03 2.80995644e-03
      -1.01227574e-02 2.96505773e-03 6.47097640e-03 6.31675217e-03
      1.09664595e-03 -2.53216084e-03 5.39984368e-03 -5.42292325e-03
      2.99678296e-02 1.88369141e-03 7.94944353e-03 2.60424824e-03
      5.06493542e-03 4.60450538e-03 3.75363268e-02 -2.02897144e-03
      4.69973963e-03 -3.58077697e-03 -6.15811115e-03 -3.44892479e-02
      -2.72173644e-03 2.89171631e-03 8.75666831e-03 6.87949639e-03
      1.03490404e-03 3.65817850e-03 -4.00921926e-02 -8.16899817e-03
      -9.12829489e-03 -3.19026993e-03 -1.50285158e-02 3.39457509e-03
      3.08951875e-03 5.65449009e-03 2.70325202e-03 6.81192521e-03
      -2.64248010e-02 -3.13120428e-03 -2.62023974e-03 6.03298948e-04
      -1.23903379e-02 -4.48325137e-03 -4.13550017e-03 -3.36373830e-03
      2.74839043e-03 5.92909614e-03 -2.65618879e-02 -3.80304176e-04
      -1.26089191e-03 -3.17000062e-03 -3.19144363e-03 3.50613077e-03
      -2.81646028e-02 7.36769149e-03 1.91637070e-03 1.10837808e-02
      -3.51771526e-02 4.20239201e-04 1.07537466e-03 1.08747580e-03
      -5.06493449e-03 -2.39548762e-03 -2.99305795e-03 -3.92174534e-02
      -3.95177922e-04 -9.17176716e-03 2.20728409e-03 6.70991465e-03
      9.57349688e-03 1.40761295e-02 -9.68236011e-03 -3.57333338e-03
      -1.31188752e-03 -5.30579244e-04 6.97461946e-04 5.34265861e-03
      4.00446542e-03 7.13115465e-03 2.36485363e-03 5.08501474e-03
      5.35112014e-03 -1.11780777e-04 -8.91115703e-03 -1.07549792e-02
      -3.47115379e-03 -3.71740875e-03 1.07300398e-03 4.62879863e-04
      1.03576796e-03 -7.72912928e-04 -3.99926817e-03 -2.00398057e-03
      -1.65777165e-04 -1.13637536e-03 -4.20245994e-03 -2.72201304e-03
      -2.06045271e-03 1.17761071e-03 -4.56256513e-03 6.60256809e-03
      -5.03150234e-03 6.95395865e-04 -1.02573102e-02 -1.50935748e-03
      -6.68610400e-03 -5.62603306e-03 1.67079596e-03 3.05588376e-02</_>
    <_>
      -2.93805287e-03 -4.05167462e-04 -2.95470655e-03 9.16035729e-04
      3.69561347e-03 2.14097509e-03 3.23400530e-03 -4.32225643e-03
      9.87717533e-04 -2.90988013e-03 -6.05407222e-05 5.26391063e-03
      3.65179428e-03 -4.43330682e-05 -1.94386521e-03 -2.40701716e-03
      1.00633933e-03 -2.80272006e-03 3.64561589e-03 8.87218514e-04
      1.00871723e-04 -2.31337835e-05 -1.71290117e-03 -6.31809607e-03
      -3.98140773e-03 -3.33959633e-03 -4.42846632e-03 -2.70075095e-03
      8.52384197e-04 -1.21057390e-04 -3.73141840e-04 2.95200059e-03
      -2.21861014e-03 -4.33452940e-03 -5.01787569e-03 -2.86705839e-03
      -2.03134515e-03 3.24097741e-03 2.94439076e-03 1.49877788e-03
      -2.55297916e-03 3.62462737e-03 -8.59924301e-04 2.09465623e-03
      2.85103638e-03 1.83959340e-03 3.25637823e-03 -1.07453112e-03
      1.51801936e-03 -1.91196403e-03 1.21748506e-03 1.82462111e-03
      5.47577278e-04 4.02525067e-03 3.99591960e-03 -9.83391874e-05
      8.55556980e-04 -4.43312572e-03 7.94264779e-05 -8.83731351e-04
      -2.36994121e-03 -2.10305187e-03 -4.82417084e-03 -4.02499642e-03
      -1.95014500e-03 -1.22981903e-03 2.19452940e-03 1.37194898e-03
      2.14248989e-03 -8.27270502e-04 1.61948462e-03 1.27454579e-03
      4.15858594e-05 2.02119030e-04 -1.05534133e-03 -3.97010799e-03
      -4.65557119e-03 -4.04190226e-03 -1.46335643e-03 5.43318456e-04
      1.05551363e-03 1.54240825e-03 -1.31476973e-03 1.64318189e-03
      2.26946504e-04 2.93825567e-03 4.71585244e-03 -7.61397998e-04
      1.91482203e-03 1.69897219e-03 -1.64890476e-03 1.82893721e-03
      -4.87728789e-03 -4.11149056e-04 -1.74479617e-03 2.70069949e-03
      1.58069399e-03 -2.62315013e-03 1.75540021e-03 -4.38185380e-04
      -7.54351437e-04 3.46164731e-03 -2.55522231e-04 -1.55062717e-03
      -2.45896843e-03 -2.32723542e-03 -1.19473448e-03 -4.85393777e-03
      -1.29033043e-03 -1.30717980e-03 -2.88304803e-03 1.97520340e-03
      -4.04968811e-03 -3.62574705e-03 -4.76003531e-03 -1.64158829e-03
      -2.26539071e-03 -2.47988966e-03 -6.73075730e-04 -2.74667842e-03
      2.83389725e-03 1.26251136e-03 1.73380168e-03 -1.32049713e-03
      -2.46347999e-03 -3.29448911e-03 -5.91205014e-03 -5.29480120e-03
      -1.55082293e-04 2.58335657e-03 -7.07898696e-04 -2.12003035e-03
      -3.56737897e-03 -4.68742009e-03 -4.18801699e-03 -7.87863915e-04
      5.35918807e-04 -7.44145247e-04 -4.19898279e-04 1.46350986e-03
      2.31843977e-03 2.07843655e-03 4.23616730e-03 3.78000131e-03
      2.38410500e-03 1.17830711e-03 -2.65635713e-03 -3.87249421e-03
      -2.37671006e-03 1.34653645e-03 7.46351667e-04 -2.28283135e-03
      -2.55135959e-03 2.22281393e-04 1.82055694e-03 3.90641717e-03
      6.85302366e-04 -1.29501731e-03 1.47454918e-03 1.77470373e-03
      -1.56126532e-03 -2.94339983e-03 -5.24143968e-03 -4.64033149e-03
      -4.10333695e-03 -1.74076541e-03 1.71549036e-03 2.28353124e-03
      2.06642691e-03 1.39882159e-03 1.09610311e-03 1.37454655e-03
      -1.06111576e-03 1.42365554e-03 -1.54031091e-03 -2.78273923e-03
      -7.11190794e-03 -1.72792748e-03 -5.74201113e-04 6.51376729e-04
      -1.27284962e-04 -2.39197444e-03 -2.75330897e-03 -1.36537466e-03
      1.29722102e-04 2.29188357e-03 2.15665950e-03 1.63697358e-03
      2.70399079e-03 1.33872335e-03 3.39882239e-03 2.79221404e-03
      3.61204939e-03 4.32294002e-03 3.10498057e-04 1.33051872e-04
      -3.46955168e-03 -6.30805851e-04 -1.21877028e-03 7.74315413e-05
      4.91246137e-05 8.58907122e-04 7.47616345e-04 8.65586509e-04
      -1.26488518e-03 -1.68481551e-03 -2.13935011e-04 -1.12039037e-03
      -1.41591625e-03 7.08946143e-04 -2.30082413e-04 -8.34542327e-04
      -1.27638248e-03 -7.76149565e-04 -1.57774275e-03 -3.31380026e-04
      2.78606219e-03 1.51304028e-03 -1.13320455e-03 7.04664213e-04
      1.35548471e-03 -2.37612519e-04 3.10335821e-03 3.66896414e-03
      2.77761777e-04 5.48000738e-04 -7.25818623e-04 -2.97592115e-03
      -2.34650308e-03 7.27889361e-04 1.21879406e-04 -3.11482232e-03
      -4.47828602e-03 -2.47982959e-03 -4.97594359e-04 9.07311391e-04
      4.78122290e-03 2.87737767e-03 2.14217906e-03 1.37928571e-03
      -9.74089256e-04 2.32590246e-03 4.64703236e-03 1.88111083e-03
      4.83900774e-03 8.13044549e-04 -2.07065092e-03 -3.14753596e-03
      -4.61363420e-03 -2.54699774e-03 -1.41361845e-03 -4.25528549e-03
      -6.72606402e-04 2.51816586e-04 2.62822700e-03 3.29796458e-03
      9.73098911e-04 -1.64303012e-04 6.70272449e-04 -1.84810976e-03
      1.83505705e-03 1.28826732e-03 2.78968248e-03 7.06745661e-04
      -9.01034073e-05 5.11947146e-04 -4.03211248e-04 -3.45599628e-03
      -5.54860150e-03 -1.53486710e-03 -1.05866638e-03 -3.02410009e-03
      -1.96785550e-03 -1.54162233e-03 -1.41003355e-03 -2.14429485e-04
      1.82529644e-03 -1.43380952e-03 -4.45974933e-04 7.61875708e-04
      -1.29815622e-03 -3.40227806e-03 -4.41437494e-03 -1.66083197e-03
      5.18423156e-04 8.78156454e-04 1.73424522e-03 -2.52737489e-04
      4.84595250e-04 -1.88857026e-03 1.55168213e-03 2.62939557e-03
      1.87154056e-03 1.53950916e-03 1.09019119e-03 -1.98796834e-03
      -4.87311510e-03 -5.45230089e-03 -5.55959530e-03 -2.84689339e-03
      4.35892551e-04 -3.57250730e-03 -2.66770413e-03 -2.00706557e-03
      -9.94330505e-04 1.18208729e-04 1.74071023e-03 -7.06359686e-04
      2.32882169e-03 2.02183449e-03 -4.97243309e-04 3.13639175e-04
      3.58396064e-04 1.68608781e-03 2.01099226e-03 -3.98300355e-04
      -3.62568581e-03 -4.55690827e-03 -2.40841042e-03 -3.07600154e-03
      7.85290176e-05 -1.23887963e-03 9.08214599e-04 1.33407023e-03
      2.02889671e-03 -1.42292387e-03 -1.99452252e-03 -3.32444720e-03
      -2.75618280e-03 -2.71823839e-04 -2.28541717e-03 -6.17288239e-03
      -3.02746100e-03 -3.05457925e-03 -1.70340529e-03 4.59040143e-03
      2.27805506e-03 1.31710910e-03 2.47442210e-03 1.47690909e-04
      -9.01810068e-04 -1.18736131e-03 -8.64922360e-04 9.10497038e-04
      1.29038398e-03 -1.59225671e-03 -1.49806740e-03 -2.63206824e-03
      -1.94667140e-03 -1.66911993e-03 -1.21555908e-03 -3.58442869e-03
      -3.36165214e-03 1.15648785e-03 3.48866597e-04 -5.12219209e-04
      2.05953745e-03 -1.01559132e-03 3.32578871e-04 -1.59967225e-03</_>
    <_>
      -2.67635356e-03 -3.89653607e-03 3.84490518e-03 1.14114461e-02
      -5.83808578e-04 -5.53124677e-03 4.70678555e-03 -1.46812457e-03
      -5.49212983e-03 -3.85546684e-03 1.08025484e-02 -1.09139290e-02
      -2.99785961e-03 8.74749292e-03 3.57286283e-03 -5.02613001e-03
      -2.35815789e-03 -1.18507305e-02 9.60692391e-03 7.88564328e-03
      -3.23374011e-03 2.31628190e-03 -6.37374166e-03 5.91029273e-03
      -5.90319745e-04 -4.39298013e-03 1.39084840e-02 1.54248681e-02
      3.71537590e-03 -2.13207933e-03 7.08376244e-03 1.08509348e-03
      5.41259488e-03 -6.05568942e-03 2.52848514e-03 -5.66706248e-03
      1.98523141e-03 8.88349768e-03 7.13733863e-03 -6.93900627e-04
      -2.36511277e-03 5.55449282e-04 8.63391906e-04 2.53641838e-03
      3.18707339e-03 -3.78772803e-03 -7.15046842e-03 -1.64639531e-03
      -6.44120155e-04 -2.14031129e-03 -1.33389207e-02 2.36593862e-03
      -4.00971854e-03 1.47687958e-03 3.50118906e-04 2.00336799e-04
      -9.61003080e-03 -1.45709177e-03 -4.51962696e-03 -9.06675309e-03
      2.10709358e-03 -7.67461583e-03 -6.14735205e-03 -8.97123385e-03
      1.73728738e-04 9.36206547e-04 -3.78833595e-03 -2.34071212e-03
      8.73554684e-03 7.24116573e-03 -7.92244915e-03 -1.37361996e-02
      -1.55654838e-02 5.82981203e-03 5.39012777e-04 4.69718780e-03
      -2.33401218e-03 1.28248883e-02 -1.81019935e-03 -2.55522947e-03
      2.43889983e-03 -5.82786743e-03 -8.58896319e-03 1.28947815e-03
      -1.61837597e-05 -1.08572107e-03 -1.27843842e-02 -1.05252964e-02
      1.54506892e-03 -5.93321165e-03 2.29881087e-04 3.18325101e-03
      -9.53138282e-04 6.69856928e-03 -2.05982663e-03 -1.19702173e-02
      6.62879692e-03 3.61913629e-03 -5.38182631e-03 -7.06294738e-03
      5.39800804e-03 1.47267152e-03 2.97798985e-03 -5.46950195e-03
      -4.13910626e-03 6.02699863e-03 -8.74501839e-03 -2.65612197e-03
      4.81463689e-03 4.83895279e-03 1.04062706e-02 9.22903046e-03
      -1.32842991e-03 -7.84107763e-03 -4.64767590e-03 -8.19186866e-03
      -1.08540002e-02 -2.33484767e-02 3.20591847e-04 1.24135725e-02
      6.84152255e-05 -1.62890255e-02 -7.01686181e-03 -8.82342178e-03
      3.85046448e-03 3.93314101e-03 8.64128955e-03 9.62342322e-03
      7.10439170e-04 -5.11378376e-03 -3.40744038e-03 -2.00294554e-02
      -5.91684738e-03 -1.22736087e-02 -1.64371484e-03 1.61896297e-03
      -3.27107846e-03 1.12783855e-04 -2.81110033e-03 -5.16656833e-03
      1.72488298e-02 -1.07936524e-02 5.01192361e-03 -1.82593474e-03
      3.33680934e-03 -4.16014518e-04 -7.13410834e-03 -3.15394858e-03
      -8.41839425e-03 9.97824874e-03 4.04091878e-03 -6.98830513e-03
      1.40990112e-02 -9.66568664e-03 -5.86966053e-04 -9.89849912e-04
      -3.44348489e-03 -1.39291575e-02 -1.22669153e-02 2.36718752e-03
      -1.72781257e-03 -7.65972363e-04 6.87034568e-04 -6.82944199e-03
      -4.32493351e-03 -6.22624392e-03 -4.20092372e-03 -8.80547450e-04
      -3.72163515e-04 -5.51397039e-04 -2.06603250e-03 -2.12670770e-03
      6.99403288e-04 1.29620690e-04 -1.16667300e-02 -2.06359057e-03
      -8.98768753e-03 2.29068310e-03 -1.60899200e-03 -5.60666947e-03
      -5.82210300e-03 -1.16656264e-02 1.67248456e-03 7.85549544e-03
      1.48174819e-03 -2.15340266e-03 3.76097951e-03 -2.50555947e-03
      -1.13781076e-02 2.87020201e-04 2.03383039e-03 2.54253391e-03
      -7.17106927e-03 9.95507347e-04 -9.74847004e-03 4.95488243e-03
      1.34539820e-04 8.78666900e-03 4.89468547e-03 7.89914839e-03
      -1.05016232e-02 -2.52536265e-03 -2.93549104e-03 -6.28980016e-03
      -8.91006365e-03 2.36764294e-03 -2.45290226e-03 2.82635982e-03
      1.70033274e-03 -5.34758344e-03 1.61797297e-03 5.26928715e-03
      4.22290032e-04 -1.36694743e-03 -1.48408739e-02 -1.24694151e-03
      6.04257733e-03 7.63496268e-04 -1.07237638e-03 -4.59789153e-04
      2.81393365e-03 -2.85506318e-03 5.02972165e-03 4.10483312e-03
      -9.82468296e-03 1.88832419e-04 -7.68797821e-04 7.94365257e-03
      5.72769484e-03 2.33120937e-03 3.57854273e-03 -1.07621690e-02
      9.62420250e-04 5.36371302e-03 7.11497036e-04 1.76708307e-03
      3.05890734e-03 1.15478027e-03 2.67424807e-03 6.06439123e-03
      -4.51583695e-03 -5.84134832e-03 7.68084219e-03 2.63169082e-03
      7.75295449e-03 1.02949003e-03 4.03817867e-05 2.49851588e-03
      -2.43853219e-03 -3.23287351e-03 5.20870695e-03 -1.19982637e-03
      2.01082719e-03 1.02857826e-03 4.66102175e-03 3.96048045e-03
      6.83561957e-04 -4.50319028e-04 6.60368532e-04 -9.16965597e-04
      8.43960047e-03 1.32699136e-03 -9.92274098e-03 -4.54849284e-03
      -4.07542335e-03 -5.95953641e-03 -2.16165697e-03 -5.17501961e-03
      -7.80398911e-03 -1.37411361e-03 8.18996131e-03 1.54934486e-03
      -1.45232922e-03 1.27442023e-02 2.57531228e-03 1.67360553e-03
      1.12710325e-02 4.42635268e-03 -5.07015036e-03 -3.16903042e-03
      -4.79988614e-03 -1.14342652e-03 4.97287430e-04 9.00770165e-03
      4.39784909e-03 1.04063004e-03 7.46929180e-03 -3.04786093e-03
      -5.28786739e-04 -4.17133141e-03 -6.41673943e-03 1.68970262e-03
      -9.24557634e-03 5.73591096e-04 -5.91779652e-04 7.10977521e-03
      5.51861664e-03 1.08061880e-02 -1.33096026e-02 -8.18392634e-03
      2.41291500e-03 -8.76869541e-03 -7.06078578e-03 8.90808739e-03
      -4.91228979e-03 -3.85673670e-03 8.52100551e-03 -5.49789658e-03
      9.85524151e-04 -4.57857689e-03 2.48968392e-03 -5.99431759e-03
      -2.46723508e-03 -5.61649119e-03 -6.15573395e-03 -5.16808266e-03
      -7.97744934e-03 2.36903853e-03 -1.04933809e-02 -5.17232623e-03
      1.02416263e-03 6.79842057e-03 7.15167960e-03 7.27976579e-03
      2.91203934e-04 -8.91271571e-04 -6.23069843e-03 2.04245583e-03
      -6.87815016e-03 -6.22159755e-03 5.60213486e-03 -1.02648456e-02
      1.14845913e-02 -1.35167711e-03 -2.02671066e-03 2.92430352e-02
      -6.79021748e-03 -1.21457167e-02 -9.93784424e-03 -2.35653017e-03
      1.83461502e-03 -8.66990816e-03 1.11423926e-02 -8.97390861e-03
      2.62799277e-03 -1.79139618e-03 -1.31588345e-02 -4.24487749e-03
      -7.36384594e-04 -5.41478349e-03 -3.10013699e-03 -6.09838031e-03
      -3.25240195e-03 -1.41298361e-02 2.28871871e-03 6.78452489e-04
      8.55527353e-03 -1.16669005e-02 1.45774595e-02 -1.40701886e-02</_>
    <_>
      -4.79144370e-03 -1.11745240e-03 3.35513265e-03 8.56145844e-03
      2.48143566e-03 -1.10781193e-02 -2.31544429e-04 6.95157610e-03
      9.59649123e-03 -2.03201689e-05 -5.54171577e-03 1.20930038e-02
      -1.37216365e-03 3.52462358e-03 1.58782303e-03 7.97739660e-04
      -2.53727823e-03 3.88808036e-03 -1.29776497e-04 -2.25359038e-03
      -1.47596502e-03 2.08782172e-03 6.24931045e-03 8.52747168e-03
      5.51589672e-03 -4.04147613e-05 2.11842498e-03 -6.73181843e-03
      -1.33947516e-02 -3.68410046e-03 -3.18668783e-03 7.32923951e-03
      -7.42838206e-03 1.94442517e-03 -1.24330521e-02 -1.33568989e-02
      -2.39065010e-03 6.19594054e-03 2.74738716e-03 2.12581968e-03
      -1.48396974e-03 -3.04261246e-03 9.57155207e-05 -1.06866308e-03
      7.72960717e-04 4.12681000e-03 -8.01330060e-03 1.08660599e-02
      -1.19908794e-03 4.61930782e-03 6.19509164e-03 -2.43577338e-03
      1.72763143e-03 -2.47927994e-04 -8.33154377e-03 -1.18223089e-03
      -4.02479293e-03 -6.33854000e-03 -1.63387717e-03 -7.19670951e-03
      7.91061757e-05 7.52605591e-03 1.06865084e-02 -2.03229720e-03
      -8.52815714e-03 -1.30829017e-03 -2.06868607e-03 2.23109149e-03
      2.72592902e-03 -3.70545057e-03 -2.60672532e-03 1.93621055e-03
      -1.59190036e-02 -1.44178011e-02 -9.89116449e-03 -1.14992075e-03
      -2.34077894e-03 2.91082566e-03 1.79365755e-03 -8.43301415e-03
      5.42430114e-03 -3.54416145e-04 -7.02001574e-03 -8.96846782e-03
      -3.82374856e-03 7.08217593e-03 5.41541213e-03 9.37865188e-05
      -4.22462588e-03 -1.13106677e-02 -1.17925600e-04 6.90396689e-03
      -2.07514409e-03 8.63528717e-03 -2.17116228e-03 -4.44466341e-03
      2.11204891e-03 -1.00417230e-02 -5.82298683e-03 -8.27409234e-03
      -4.39229328e-03 -7.55956955e-03 -1.43825146e-03 -1.31089175e-02
      -3.52748553e-03 7.76266074e-03 8.53672344e-03 -5.62247646e-04
      -1.66405446e-03 -4.87155188e-03 2.51843315e-03 -3.82451550e-03
      6.57397695e-03 1.42300641e-02 2.13965843e-03 -7.78984418e-03
      -1.74786001e-02 -5.16280066e-03 -6.66963123e-03 -6.24308316e-03
      5.72235743e-03 -9.75253433e-03 -4.37412271e-03 -4.38095815e-03
      3.48491338e-03 7.64331082e-03 3.76948767e-04 -7.87208788e-03
      -1.64217856e-02 -1.17894672e-02 -7.94112310e-03 -1.22382715e-02
      1.89461047e-03 -4.19234531e-03 5.49485814e-03 9.60391830e-04
      1.57839473e-04 2.47208891e-03 -2.07538232e-02 8.78677762e-04
      4.17339988e-03 -4.86389780e-03 7.67575484e-03 -2.60009300e-02
      -1.44989248e-02 -1.03910742e-02 -1.22123379e-02 -7.01150531e-03
      8.69038701e-03 -2.95723203e-05 2.86749820e-03 -5.83350426e-03
      -1.01694174e-03 -9.81551409e-03 -2.36009364e-04 2.09113932e-03
      -7.44904159e-03 3.92476841e-06 7.78592424e-04 1.92580535e-03
      2.21316307e-03 -4.35986044e-03 9.14752390e-03 2.39912653e-03
      3.05064977e-03 -2.14479049e-03 -2.72908062e-03 -5.54142520e-04
      -1.77411716e-02 -1.34480754e-02 2.56292080e-03 -8.18882044e-03
      -1.83465444e-02 -1.67413354e-02 -5.51023381e-03 -4.66296077e-03
      8.41314832e-05 8.85735732e-03 -5.30750677e-03 -4.57863184e-03
      -1.70410424e-03 6.23960560e-03 -5.08829206e-03 6.09914726e-03
      -8.84598587e-03 -5.94914472e-03 9.01625771e-03 -3.07828188e-03
      -2.72256648e-03 -1.09841290e-03 2.15906301e-03 -1.10375043e-02
      2.39530415e-03 1.15851844e-02 -9.13544651e-03 -8.93839076e-03
      -7.67674949e-03 -1.45832403e-02 -4.70990688e-03 1.78269425e-03
      -1.36814825e-02 -1.16114207e-02 -9.76774655e-03 -9.37636383e-03
      2.87673273e-03 9.63477141e-05 1.17777190e-05 4.58454061e-03
      -4.39114170e-03 -8.15186650e-03 -5.11077116e-04 1.99633488e-03
      1.13012614e-02 1.22828064e-02 6.05070312e-03 -1.05624385e-02
      -1.34519516e-02 -1.26787489e-02 6.21024892e-03 7.11426185e-03
      -4.33455128e-03 -1.30293379e-02 -3.78023554e-03 1.41214777e-03
      2.17515160e-03 4.52732621e-03 3.12658318e-04 -1.02472985e-02
      -6.57603797e-03 3.27387289e-03 2.50431290e-03 -4.50431369e-03
      -1.31907966e-02 -1.10966293e-02 -9.86488722e-03 -2.84082163e-03
      -1.86904322e-03 -1.66281201e-02 6.42206753e-03 1.51525745e-02
      -4.13175160e-03 -1.49245393e-02 6.25851750e-03 -9.26433038e-03
      3.97720514e-03 3.83183616e-03 1.09663336e-02 3.51067632e-03
      9.08059068e-03 -2.46419734e-03 -4.15474363e-03 -7.02864630e-03
      1.59985747e-03 -2.43583485e-03 5.02456678e-03 8.43885820e-04
      1.81944796e-03 1.22454332e-03 -3.74681130e-03 -4.44777729e-03
      -1.25288637e-02 -1.50132482e-03 -1.08358683e-02 -1.04247024e-02
      -6.80814544e-03 2.35099066e-03 1.03501799e-02 1.34947035e-03
      9.22403019e-03 2.56667030e-03 3.70769203e-03 1.14132846e-02
      2.94106524e-03 1.06257095e-03 1.88353960e-03 2.36006943e-03
      -2.04540793e-05 -2.96488591e-03 9.46625441e-05 -5.07085957e-03
      -2.08655209e-03 -2.10258225e-03 -1.05403569e-02 6.71178196e-03
      -3.81230051e-03 -5.35922963e-03 7.69383321e-03 7.41082942e-03
      5.55404788e-03 1.50412659e-03 -2.94538541e-03 -6.44139829e-04
      4.52435546e-04 1.63871069e-02 4.16456955e-03 -2.48509459e-03
      -1.44794285e-02 -7.95629155e-03 -1.09164286e-02 3.00622918e-03
      -4.16128803e-03 7.70972669e-03 4.64255223e-03 7.90980086e-03
      3.83784017e-03 2.16145348e-03 -3.07987165e-03 -4.71729366e-03
      1.57754018e-03 -2.49686954e-03 -7.91508006e-04 -7.27569079e-03
      3.51904891e-03 6.50377432e-03 2.80017126e-03 -5.08367037e-03
      -1.08335083e-02 -5.67296008e-03 -4.60118987e-03 5.57013834e-03
      -1.92250800e-03 -1.34235178e-03 -9.45340283e-03 6.44555734e-03
      -1.49443222e-03 5.29540051e-03 2.27972260e-03 -7.81657081e-03
      -2.55807233e-03 2.19238480e-03 -6.77526556e-03 -7.88834877e-03
      -1.14943357e-02 -1.44866239e-02 -4.01505036e-03 -7.11356988e-04
      1.47056468e-02 2.84263515e-03 3.66060855e-03 -2.71112076e-04
      -1.18957204e-03 6.23863982e-03 -7.73056410e-03 -3.62190069e-03
      -6.39889447e-04 3.58344754e-04 8.43657181e-03 -1.95820583e-03
      3.71964369e-03 -3.73460609e-03 -8.54658242e-03 5.33665670e-03
      1.79919857e-03 -2.48805503e-04 3.33327218e-03 -6.75315619e-04
      1.41905546e-02 -2.68595177e-03 -2.42786971e-03 -1.72788110e-02</_>
    <_>
      1.25081791e-02 9.67871584e-03 8.22190102e-03 1.73166060e-04
      5.55889634e-03 3.32168210e-03 -3.66181694e-03 3.82613228e-03
      6.70837332e-03 1.00424513e-03 -1.67077444e-02 1.61131714e-02
      8.46855436e-03 9.32501338e-04 3.23657738e-03 9.73118097e-03
      -1.12104565e-02 -5.42923866e-04 -5.50327031e-03 -1.49267437e-02
      -1.03700375e-02 -1.04858270e-02 -5.39783947e-03 -1.05464552e-03
      5.74790407e-03 2.06450261e-02 -6.08423434e-04 1.62887648e-02
      1.07143372e-02 -2.23912895e-04 -2.94983876e-03 1.41146909e-02
      9.24959499e-03 -5.20441635e-03 1.42104812e-02 6.10765861e-03
      -1.19012063e-02 -2.63645407e-03 -9.22686607e-03 -8.31719674e-03
      -1.87822431e-02 1.71273318e-03 6.83277799e-03 2.94150726e-04
      8.55052099e-03 9.04731080e-03 -9.85086616e-03 -6.40906394e-03
      -2.88461498e-03 -9.49122757e-03 2.13186862e-03 -8.29046965e-03
      1.20142028e-02 -1.11915693e-02 6.57617487e-03 1.34100171e-03
      -5.62319392e-03 -2.29000323e-03 -1.19899662e-04 -9.49239731e-03
      -1.27337230e-02 2.41961738e-04 -2.55100220e-03 -1.29214497e-02
      3.38768074e-03 -6.40871841e-03 -5.32517536e-03 -6.72308914e-03
      -6.16495637e-03 -1.72257109e-03 -2.46508792e-03 -2.70006550e-03
      -1.51954601e-02 -9.04120039e-04 8.82310141e-03 -6.16671611e-03
      -1.72018772e-03 1.24420775e-02 1.97981042e-03 2.56718439e-03
      -1.02834962e-02 -2.52431235e-03 5.28486213e-03 -3.99913220e-03
      8.73312354e-03 1.20214149e-02 1.07177347e-02 3.23261367e-03
      1.65213621e-03 -6.43011834e-03 4.83370107e-03 -1.74163643e-03
      -1.92686822e-02 1.01694735e-02 -3.39369592e-03 4.70422721e-03
      -4.21313103e-03 -6.59968122e-04 7.41310697e-03 -2.54843943e-03
      -4.46603546e-04 2.90050590e-03 2.27606203e-03 2.64463411e-03
      1.65692978e-02 1.22798281e-02 3.04913963e-03 5.66769019e-03
      6.10672694e-04 5.52722672e-03 3.71331000e-04 -1.09186145e-02
      -4.38278541e-03 -3.58906086e-03 -3.34755727e-03 3.55093949e-03
      1.02069778e-02 1.13015715e-03 3.20161623e-03 8.77351128e-03
      -4.41724481e-03 -1.32901184e-02 -1.21175312e-02 8.16489803e-04
      -2.03938549e-03 1.19620264e-02 1.53902243e-03 -5.10271359e-03
      9.63449758e-03 4.67390614e-03 -2.32886570e-03 -4.39427001e-03
      -9.01354756e-03 -2.60039698e-03 -5.17111691e-03 -1.27681915e-03
      -2.58097891e-03 -2.83259316e-03 -2.18462967e-03 7.43307779e-03
      6.45582797e-03 9.43353679e-03 -4.45538014e-03 -1.78346653e-02
      -2.62930710e-02 -4.19392297e-03 -8.46401497e-04 -4.71140211e-03
      -4.87826951e-03 -9.96129005e-04 2.94384547e-03 -1.76685229e-02
      -8.17692094e-03 -1.50557673e-02 1.04515953e-02 5.68953808e-03
      7.94295501e-03 -1.00462865e-02 -1.37560330e-02 4.04699659e-03
      -1.42751532e-02 -2.36101216e-03 -1.52452430e-02 -6.10917946e-03
      -1.00041032e-02 -1.26626715e-02 2.24959827e-03 -1.01032597e-03
      -4.79591684e-03 -1.59146897e-02 1.68633345e-03 3.31330637e-04
      2.01725913e-03 1.43702794e-02 -1.04685873e-02 -1.53928744e-02
      2.60691880e-03 -1.03384983e-02 2.20530969e-03 8.38403066e-04
      -3.64862825e-03 -1.94502168e-03 2.79500266e-04 -4.00799140e-03
      -7.80329295e-03 -1.10135749e-02 1.37846749e-02 -8.53707828e-03
      -7.17728445e-03 9.20180604e-03 2.47795461e-03 1.47067653e-02
      7.88406003e-03 -4.99823969e-03 -2.11916100e-02 -1.63659025e-02
      -1.18880961e-02 -1.69589679e-04 -6.29850477e-03 -2.78777326e-04
      -1.99190434e-03 -2.39830022e-03 4.13163612e-03 2.01410381e-03
      2.24708160e-03 4.15723259e-03 7.12001231e-03 -6.91713626e-03
      -8.72892234e-03 2.18827496e-04 3.63761093e-03 1.26912177e-03
      -3.55424988e-03 -1.06716668e-02 -1.80220529e-02 -1.29610458e-02
      -6.41974527e-03 -6.21757237e-03 -1.42441913e-02 1.66389886e-02
      -4.12939861e-03 7.74370619e-06 -7.32314831e-04 -4.69264254e-04
      -8.22803285e-03 -7.10062636e-03 -1.01462584e-02 -6.91628689e-03
      -7.45908683e-03 -1.05062881e-02 -1.33151952e-02 -3.92385200e-03
      -6.99484348e-03 -1.03447745e-02 -1.34918801e-02 -5.02393441e-03
      -8.28908104e-03 -4.28092107e-03 -4.49069869e-03 -1.19608978e-03
      -1.94933265e-03 -9.45219421e-04 2.25696955e-02 1.32091949e-03
      8.60687345e-03 9.02066566e-03 1.46813104e-02 -1.09580569e-02
      -2.02501547e-02 -7.76738022e-03 -3.54186515e-03 -8.38329364e-03
      1.80698335e-02 4.48695663e-03 1.12660909e-02 6.15908252e-03
      4.62652743e-03 -8.80618207e-03 -8.95785727e-03 -5.15140966e-03
      2.60215458e-02 8.93018791e-04 -9.09741968e-03 -6.59021689e-03
      1.88266288e-03 4.14406322e-03 7.57017964e-03 -2.88333073e-02
      1.25050098e-02 8.21101945e-03 1.27002774e-02 -9.04318783e-03
      -8.14933144e-03 1.74094795e-03 8.41105264e-03 1.08813820e-02
      -1.05642062e-02 -4.47156001e-03 8.88698734e-03 1.14935590e-02
      -2.31537526e-03 3.10618593e-03 -1.25185186e-02 -1.70734874e-03
      -6.29031844e-03 -1.24790054e-02 6.08076993e-03 1.25809237e-02
      -4.05774277e-04 -1.30245527e-02 -1.04711121e-02 6.44943770e-03
      -1.80076864e-02 -6.90286234e-03 -1.02582173e-02 -5.19592967e-03
      -2.48264289e-03 1.06407481e-03 -2.33088620e-03 -1.23591791e-03
      -4.99372743e-03 -8.15600622e-03 7.75918039e-03 8.42684601e-03
      1.25849061e-02 6.91419980e-03 8.19470454e-03 9.35326912e-04
      -3.64393782e-04 -6.90753921e-04 -1.48999691e-02 1.39081560e-03
      5.27611561e-03 -7.76899513e-03 -4.36850917e-03 -3.74229555e-03
      -2.27047317e-03 -1.01859923e-02 -8.12550168e-03 -2.26211239e-04
      -3.08266631e-03 6.02231734e-03 -9.78874508e-03 2.57095462e-03
      1.66834183e-02 2.02017408e-02 2.70805345e-03 9.83946025e-03
      -5.19094709e-03 -1.89664995e-03 -8.12683534e-03 -1.07564647e-02
      -1.10364398e-02 -7.40791764e-03 -8.71074293e-03 6.62552845e-03
      1.71120220e-03 1.94318860e-03 -1.13740908e-02 -3.23316292e-03
      -1.09540159e-02 3.89380555e-04 1.58658600e-04 1.61634525e-03
      5.12344530e-03 -4.58339840e-04 -1.22788607e-03 -8.82063899e-03
      -1.63112730e-02 -7.18257111e-03 -9.86782741e-03 -7.45661906e-04
      7.14168767e-04 -5.43824723e-03 -1.49799008e-02 -7.28993351e-03
      2.36292579e-03 -6.72712876e-03 -1.29442140e-02 -1.53074937e-03</_>
    <_>
      -6.94120768e-04 -4.39687108e-04 1.42408562e-05 -6.81607518e-04
      6.18944177e-04 8.23386887e-04 5.89114905e-04 -2.32603070e-05
      -3.48139525e-04 -7.71456747e-04 -1.27456756e-03 -4.96349065e-04
      1.77854134e-04 -2.30172285e-04 9.81295132e-04 9.88287968e-04
      2.70504883e-04 1.23701070e-03 -5.00791823e-04 -8.68201605e-04
      -3.21098283e-04 1.48722262e-03 1.01666199e-03 3.32260563e-04
      -6.85208433e-05 -4.79897310e-04 1.39632626e-04 -2.36290303e-04
      8.36048042e-04 -3.67137691e-04 1.70115629e-04 1.91600469e-04
      -2.66541669e-04 8.40407592e-05 3.88275483e-04 5.57088933e-04
      4.87695186e-04 2.01914040e-03 1.55088794e-03 6.34136435e-04
      -2.77059240e-04 -3.59923753e-04 1.24914898e-03 -1.04702500e-04
      8.95572070e-04 5.71014010e-04 -2.96174803e-05 1.95103639e-04
      -6.44369982e-04 -8.93397228e-05 -4.38770046e-04 -1.01021747e-03
      8.81002226e-04 -2.85400019e-04 6.07271621e-04 2.87601579e-04
      -2.86158593e-05 1.09931352e-04 -1.06849743e-03 -2.60785309e-04
      9.38499812e-04 -4.18933312e-04 -2.28995239e-04 3.11752847e-05
      7.52091757e-04 7.65637495e-04 3.20968364e-04 2.63466383e-03
      7.71726074e-04 1.95851596e-03 -1.00856225e-04 -1.32511684e-03
      -1.13412156e-03 -3.58013320e-04 -5.81971835e-04 -7.11521134e-04
      -7.37368609e-05 5.21832262e-04 2.68191914e-04 9.27383153e-05
      3.55885772e-04 -4.59847623e-04 3.08875286e-04 6.61696904e-05
      1.11662946e-03 1.06647401e-03 4.94953347e-05 1.08616636e-03
      -4.49788087e-04 4.04207851e-04 -8.72027420e-04 -9.67481465e-04
      2.83960340e-04 6.88317756e-04 2.04846915e-03 2.03674124e-03
      2.06304860e-04 5.65339462e-04 -4.97792324e-04 -6.48420770e-04
      3.43879801e-05 -1.63294736e-03 -9.42549261e-04 -1.86013829e-04
      5.53516846e-04 6.12957694e-04 -4.47139137e-05 -1.13599948e-04
      1.20626879e-04 1.25598948e-04 -1.28690933e-03 -1.44572137e-03
      -5.28297278e-05 6.49254187e-04 1.55088794e-03 1.43832737e-03
      2.55381980e-04 -9.23515065e-04 -1.22343554e-04 -1.05076481e-03
      -3.33106145e-05 1.09073985e-03 2.32415576e-03 7.19407923e-04
      1.77066904e-05 -5.15391526e-04 -1.82243428e-04 -1.63952203e-03
      4.79362148e-04 -3.37075529e-04 5.86476781e-05 -3.66106920e-04
      -1.16921018e-03 -4.67335885e-05 8.06677344e-05 2.09755017e-04
      3.52841103e-04 1.56344927e-03 1.74062722e-03 9.85134626e-04
      -4.95896165e-05 3.95677547e-04 5.60652814e-04 2.42596230e-04
      -2.22745133e-04 -5.38862601e-04 -6.48559362e-04 -1.42576511e-03
      1.16250396e-03 2.47213156e-05 -1.19438504e-04 -8.24225601e-04
      -1.76245358e-03 9.81715766e-06 1.59745381e-04 -2.20974871e-05
      -2.68691540e-04 4.76901943e-04 2.23901193e-03 -1.19438504e-04
      2.60969275e-04 -1.10826478e-03 -2.80020060e-03 -1.92235078e-04
      3.94701259e-04 4.33198235e-04 1.63205768e-04 2.57994467e-03
      1.29067933e-03 1.91741413e-03 9.87774227e-04 -8.61515466e-04
      -2.03818246e-03 -3.76242242e-04 -3.04370333e-04 -2.51873425e-04
      9.19047852e-06 1.02812389e-03 1.03865867e-03 1.68014003e-03
      1.09456785e-04 -8.28197168e-04 -2.38212454e-03 -4.10150329e-04
      1.17422023e-04 1.80810821e-04 1.35646887e-05 9.05938330e-04
      1.21538877e-03 8.05497344e-04 2.40634239e-04 -1.42595427e-05
      -2.08039279e-03 -9.10841685e-04 -8.61918146e-04 -5.57280553e-04
      -1.16475472e-04 1.55347007e-04 1.18339807e-03 1.46163651e-03
      7.72907457e-04 -5.95789053e-04 -1.55307818e-03 -2.88341602e-04
      -8.44791881e-04 -6.79442775e-04 -1.25829669e-04 -5.49397140e-04
      2.50262354e-04 1.02634891e-03 3.25440749e-04 1.02189297e-04
      -3.14254081e-04 4.72536740e-05 2.36666267e-04 5.58065367e-04
      4.31713881e-04 -4.35223832e-04 1.08509312e-06 3.35632503e-04
      9.14309931e-04 -5.37043496e-04 -2.34088209e-03 -9.15341894e-04
      -1.64213998e-03 -1.52804784e-03 -3.85850028e-04 -3.52289411e-04
      1.59694906e-03 1.25394191e-03 1.89897686e-03 8.16192711e-04
      -1.20170575e-04 -5.83083565e-05 4.94874839e-05 -6.31807488e-04
      -1.47098879e-04 -2.58581422e-04 1.25784019e-03 1.80845440e-03
      6.47660170e-04 8.35970219e-04 3.67205561e-04 1.34592046e-05
      2.06306999e-04 1.09121967e-04 -4.71733947e-04 -1.40423398e-03
      -3.78199038e-05 2.87458679e-04 -8.28939574e-06 -9.05943743e-04
      4.53830071e-05 3.43876978e-04 1.25429593e-03 8.39124958e-04
      -2.88451731e-04 3.10914416e-04 1.10220071e-03 -8.28939574e-06
      -4.13897127e-04 -1.17395852e-04 1.50117802e-03 6.20821302e-05
      8.19146982e-04 7.98186054e-04 -2.61220848e-04 -1.59705116e-03
      -1.37133221e-03 -5.78707783e-04 -2.71266937e-04 -8.61276756e-04
      2.03512656e-03 4.19364544e-04 1.49451883e-03 1.30404206e-03
      -1.05849809e-04 -4.50063555e-04 -7.41639349e-04 -3.49073001e-04
      -2.96323939e-04 -1.20704551e-03 -1.39912427e-03 -3.92984621e-05
      9.91855166e-04 9.03875451e-04 -1.22628035e-05 8.90975236e-04
      8.70748889e-04 1.91572704e-04 8.09837366e-05 -3.66118213e-04
      -1.30202586e-03 -9.94529575e-04 -2.95568811e-04 -1.12715657e-04
      -1.28337677e-04 8.91322736e-04 8.39260523e-04 1.27338700e-03
      -3.26589565e-04 -8.88338138e-04 2.13418170e-04 2.33279934e-04
      9.36498691e-04 8.47005402e-04 1.47532744e-04 1.97234517e-03
      8.75239275e-05 -4.62167081e-04 5.58155880e-04 -2.53670994e-04
      -6.95279916e-04 -3.45492648e-04 3.01204243e-04 3.00945481e-04
      -3.02499859e-04 2.35706056e-03 1.96120425e-04 1.02153642e-03
      1.02890562e-03 1.12277921e-04 -1.73669669e-03 -1.00066466e-03
      -1.40855077e-03 -1.16359780e-03 -4.00181627e-04 3.72947106e-04
      1.55597040e-03 1.81483070e-03 2.54116370e-03 8.47171119e-04
      2.37475877e-04 -5.47316624e-04 -8.60608357e-04 -1.06735481e-03
      -7.95960193e-04 -3.83641163e-04 1.28082337e-03 2.51977216e-03
      2.27036522e-04 -3.80085432e-04 -2.76706123e-05 -4.73997148e-04
      -9.76269250e-04 -7.12807872e-04 -3.58840713e-04 4.43337485e-04
      -2.95275677e-04 1.70743762e-04 8.57251754e-04 -1.43880068e-04
      1.66470790e-03 -4.20849858e-04 -2.22775052e-05 -1.61761636e-04
      -5.86360053e-04 -4.48924780e-04 -8.64683476e-04 2.23965733e-04</_>
    <_>
      3.74464667e-04 2.92830409e-05 5.55297447e-06 -7.77218025e-04
      6.49995709e-05 2.21556809e-04 -4.03077953e-04 -8.22244503e-04
      -7.59157760e-04 -2.66437091e-05 5.80596097e-04 -1.49125248e-04
      -3.96037722e-05 -9.92439105e-04 3.16150370e-04 4.69017774e-04
      -1.56061033e-05 6.05133187e-04 4.01806552e-04 6.69559988e-04
      1.94607559e-03 1.98138435e-03 1.07155007e-03 -5.03946503e-04
      -2.46657699e-04 -1.02512317e-03 -1.74146367e-03 -1.39360188e-03
      -5.44240873e-04 1.51119765e-03 1.17216690e-03 -1.71462016e-04
      -1.36910600e-03 -1.86466984e-03 -7.87969853e-04 -2.33991828e-04
      -1.02130545e-03 6.25624787e-04 5.56975603e-04 1.53446104e-03
      -4.35194670e-04 -5.46748866e-04 5.20561007e-05 -5.94713958e-04
      1.22803159e-03 1.41411298e-03 2.69788026e-04 4.19065997e-04
      2.47781252e-04 -3.52192816e-04 4.73269727e-04 2.19497029e-04
      1.24328435e-04 8.26075557e-05 1.90360716e-03 9.45981417e-04
      -4.79439303e-04 -3.08747258e-04 -6.97694952e-04 -2.08288431e-04
      4.91462531e-04 -6.57563913e-04 -1.71534717e-03 -1.27908064e-03
      -3.93389899e-04 -1.65236372e-04 -1.10796164e-03 5.40987123e-04
      3.86037922e-04 1.26808917e-03 1.09670463e-03 4.34092653e-04
      -5.53925638e-04 1.40397722e-04 1.60313662e-04 -9.93668451e-04
      -2.26899865e-03 -7.95611355e-04 -5.54445432e-04 9.34665441e-04
      7.11447501e-04 3.43774707e-04 6.19538769e-05 3.04128393e-04
      6.96085219e-04 2.18257235e-04 -4.56320064e-04 -1.24060398e-03
      -2.39481422e-04 3.33512784e-04 4.39368159e-04 -1.60244963e-04
      3.79944307e-04 -4.29678676e-06 3.01660213e-04 5.97868988e-04
      -9.66463180e-04 6.44956017e-05 -3.35872901e-04 4.29054693e-04
      1.23288401e-03 5.72008314e-04 -6.58967008e-04 -3.37381527e-04
      -1.65437013e-05 -4.18558106e-04 -1.42267998e-03 -1.18785212e-03
      -6.77170116e-04 1.05074258e-03 1.16841181e-03 2.54264247e-04
      2.78248481e-04 -8.32769787e-04 3.95385723e-05 1.42017292e-04
      -1.06174417e-03 3.50897404e-04 -6.20682084e-04 9.34639305e-04
      1.12653570e-03 1.26275327e-03 2.22694711e-03 -2.27119453e-04
      -9.22234729e-04 -1.95211510e-03 -1.58153439e-03 -1.42055610e-03
      -4.54264402e-04 1.11766811e-03 2.96730170e-04 -1.57239113e-03
      -2.61840178e-03 -2.10911408e-03 -1.22716557e-03 -3.20348976e-04
      -6.33835676e-04 1.13771867e-03 1.09586352e-03 1.93015265e-03
      1.46264327e-03 2.67204945e-04 7.35887093e-04 -2.00150709e-04
      -7.22247816e-04 -1.28898490e-03 -1.60620792e-03 6.32358497e-05
      5.69592114e-04 1.17653701e-03 4.79038310e-04 -5.65860770e-04
      -1.28867943e-03 -1.04772323e-03 -6.55144919e-04 -1.88455248e-04
      -1.10323053e-04 7.31587294e-04 1.40502653e-03 9.23458370e-04
      1.56364206e-03 -9.03418462e-04 -2.94467458e-03 -1.88125670e-03
      -1.20667112e-03 -7.30816391e-04 -9.08010930e-04 1.37067388e-03
      1.43098528e-03 3.01593449e-03 2.34338385e-03 6.54596835e-04
      -9.57381038e-04 -4.39931639e-04 -6.07557769e-04 -1.20702502e-03
      -2.39942968e-03 -1.48383295e-03 -4.72101034e-04 1.72040903e-03
      1.00664794e-03 -3.16126068e-04 -1.84065371e-03 -1.25318265e-03
      -9.21558996e-04 -5.85173315e-04 -4.58145776e-04 6.90409288e-05
      1.04821380e-03 1.80298963e-03 1.50874571e-03 8.03958625e-04
      -1.29488995e-04 -5.38721157e-04 -9.48700530e-04 -1.18582603e-03
      -1.24976435e-03 -1.12927693e-03 -3.13071359e-04 9.34843090e-04
      1.77196087e-03 1.03927872e-04 -5.88541967e-04 -4.14037058e-04
      -7.14603928e-04 -8.27499956e-04 -9.62749473e-04 -1.73988962e-03
      -6.84940082e-04 1.42021803e-03 1.21228315e-03 -5.02499635e-04
      -8.97080405e-04 -9.86391795e-04 7.32644636e-04 1.16739725e-03
      -1.62048033e-04 8.59162770e-04 -3.87410022e-04 1.44114811e-03
      6.94180781e-04 -3.18365463e-04 -7.17587653e-04 -4.44002450e-04
      -6.15596131e-04 -7.48060236e-04 -5.09132689e-04 -1.61680614e-03
      -1.17296516e-03 5.57789579e-04 6.92972797e-04 -1.02133211e-03
      -3.63193802e-04 -1.42124190e-03 4.70667670e-04 1.11652166e-03
      1.13239461e-04 4.21073462e-04 1.19035649e-04 1.47591205e-03
      1.70906016e-04 2.02943702e-04 1.59581527e-04 -2.45241845e-05
      2.14514948e-04 -5.67642273e-04 -1.33361656e-03 8.25073512e-05
      2.66953488e-04 8.84823967e-05 9.83345672e-05 -2.59466906e-04
      1.51779095e-04 -4.36686823e-04 7.06327730e-04 8.60897650e-04
      1.16780451e-04 8.42736044e-04 9.71753441e-04 3.25815374e-04
      -9.92554938e-04 2.73159880e-04 1.95512723e-04 5.53736572e-05
      4.34024078e-05 -2.80669628e-04 -4.78733884e-04 -1.75035419e-03
      -1.41858950e-03 -1.39163667e-03 4.41681681e-04 -3.34421406e-04
      8.79383588e-04 5.10032478e-05 1.24364579e-03 1.17441814e-03
      5.62019159e-05 -2.69696378e-04 -5.59110602e-04 5.67412993e-04
      1.63831457e-04 -8.88145936e-04 -1.36210851e-03 -6.84004626e-04
      -2.60349934e-05 -4.73011096e-06 -5.41593647e-04 -5.63832757e-04
      -7.63953085e-06 4.44507110e-04 4.66380763e-04 -4.12415602e-06
      5.37121959e-04 -3.87675100e-04 1.52625551e-04 -1.24880535e-04
      -1.43453118e-03 -7.68348516e-04 -9.12563235e-04 1.58534211e-04
      4.50624299e-04 -5.27078169e-04 -3.48804424e-05 -3.05908470e-04
      7.55573274e-04 7.45589903e-04 2.96286016e-04 4.23623918e-04
      -4.91838378e-04 6.14272838e-04 7.18076248e-04 3.53521864e-06
      1.59578933e-03 -1.38159507e-04 1.12047279e-03 7.92638690e-04
      -5.64747723e-04 4.37220006e-05 -9.68271634e-04 4.17364325e-04
      3.30487353e-04 -5.42820315e-04 -5.20613794e-05 -2.51401274e-04
      3.92992224e-04 2.35534782e-04 -5.80115418e-04 -9.63441911e-04
      -1.37173792e-03 4.42170684e-04 3.15612066e-04 -8.15385487e-04
      -1.93030253e-04 -1.26524456e-03 1.64715268e-04 9.01214196e-04
      -1.18343312e-04 5.24047588e-04 2.26880642e-04 1.23835332e-03
      -8.60096625e-05 -3.44435364e-04 1.04592845e-03 -8.16546435e-06
      8.11948848e-04 5.71061566e-04 -3.60766222e-04 -1.02534529e-03
      -8.14327213e-04 -5.82378780e-05 8.76598860e-05 1.48871099e-04
      2.24541684e-04 -6.35862991e-04 7.11081550e-04 6.37118006e-04
      -1.22648664e-04 7.61820484e-05 -4.99464222e-04 3.53007548e-04</_>
    <_>
      -1.23061414e-03 -6.51982729e-04 5.70213888e-04 -2.60412722e-04
      2.28847912e-05 -1.65113073e-04 -5.44758514e-04 6.44631742e-04
      -1.04207115e-03 -1.17179868e-03 -6.88332017e-04 -1.63498265e-03
      -2.88361771e-04 -6.39782404e-04 9.69610177e-04 7.99764588e-04
      -6.85473206e-05 1.76022341e-03 -6.92677218e-04 -4.81260242e-04
      2.40332774e-05 -1.88175181e-04 6.35676843e-04 6.80787954e-04
      3.31362186e-04 -1.15382252e-04 -7.57299771e-04 1.07236509e-03
      4.67950740e-04 3.59054502e-05 1.37409384e-04 -1.72896148e-03
      -1.47360994e-03 -1.74642319e-03 -1.60654832e-04 1.71637686e-04
      -2.66402145e-04 2.34861695e-03 1.37242128e-03 1.25073572e-03
      -9.96978371e-04 -2.16044486e-03 -1.90671766e-04 -8.50973709e-04
      1.30105531e-03 1.25363679e-03 4.05100218e-05 1.59280852e-03
      -4.37912531e-04 -7.47747894e-04 -7.17792893e-04 -1.87904062e-03
      -3.00815591e-04 -7.46379839e-04 1.09259202e-03 9.76975309e-04
      -1.55104761e-04 1.22463051e-03 -1.00529962e-03 -8.17706867e-04
      6.58807403e-04 -2.06131185e-03 -1.11433922e-03 -1.81438087e-03
      5.17097651e-04 7.07481697e-04 2.36578562e-05 2.30374187e-03
      7.10590859e-04 1.96402357e-03 -1.27401436e-04 -1.93429366e-03
      -7.37010210e-04 -9.84073617e-04 1.08184258e-03 9.34383250e-04
      -2.79049622e-04 8.87753849e-04 -4.33811132e-04 1.94612119e-04
      -4.95956163e-04 -1.29501184e-03 5.89187082e-04 -2.86489521e-04
      3.19151150e-04 1.15777104e-04 -8.93753604e-04 -8.38680280e-05
      -1.07676035e-03 -8.15754873e-04 -3.48978443e-04 -1.09320367e-03
      1.30546908e-03 6.32605690e-04 9.86073050e-04 8.20239889e-04
      -9.53636889e-04 9.61826736e-05 -1.35635142e-03 3.03034158e-05
      5.73452620e-04 -7.75659399e-04 3.99840181e-04 -1.33614533e-03
      -1.26657833e-04 -8.98951257e-05 -1.12780719e-03 -2.53055390e-04
      -5.35386265e-04 4.54308203e-04 1.04722334e-03 3.68964102e-04
      2.00818665e-03 -1.07767840e-03 3.45853070e-04 3.96396383e-04
      -1.24550133e-03 -3.35650664e-04 -3.21325439e-04 1.17269182e-03
      -9.65983607e-04 -1.82891358e-03 4.62764350e-04 1.37381285e-04
      1.80771185e-05 -3.59165831e-04 -1.86104444e-04 1.34882913e-03
      2.88032752e-04 -5.67132491e-04 1.81204276e-04 -1.78134197e-03
      -2.33523943e-03 -1.24948565e-03 -1.02182862e-03 -2.99863488e-04
      -4.62535507e-04 1.63961342e-03 7.16411916e-04 1.27859914e-03
      1.34889421e-03 -1.20614597e-03 -7.21234072e-04 -6.96304953e-04
      -9.89546417e-04 -9.41281789e-04 -7.45485013e-04 1.85738690e-03
      8.75056430e-04 1.58919254e-03 1.30156393e-03 2.29468089e-04
      -1.23735794e-04 -1.07236835e-03 -1.61268760e-03 -1.57094316e-03
      -1.33920379e-03 -2.94182355e-05 6.03709661e-04 1.23814552e-03
      1.47899741e-03 -1.15431973e-03 -1.62387744e-03 -1.40626659e-03
      -9.35112184e-04 -7.56735215e-04 -5.11957740e-04 1.06515386e-03
      3.82220140e-04 2.13815621e-03 1.20699813e-03 -1.95910339e-03
      -1.75830571e-03 -1.60104246e-03 -1.24896120e-03 -1.22920412e-03
      -7.79739406e-04 -5.31331229e-04 -2.90196243e-04 1.06071867e-03
      1.18499505e-03 -8.41418630e-04 -2.88547541e-04 -7.26244471e-04
      -1.27697038e-03 -1.29537424e-03 -1.15485408e-03 -7.80172631e-05
      -1.59927567e-05 1.15710287e-03 9.64032428e-04 -1.43779174e-03
      -1.26447505e-03 -1.15961663e-03 -1.25294563e-03 -1.08110439e-03
      -8.62540794e-04 1.02981670e-04 -1.21838857e-04 9.64032428e-04
      1.75683468e-03 -5.21369278e-04 -7.76430184e-04 -1.89803459e-03
      -1.55247771e-03 -1.28613564e-03 -1.15893455e-03 -1.19995745e-03
      -3.02025786e-04 1.65375066e-03 1.82310888e-03 6.87588414e-04
      4.11457790e-04 -1.39914383e-03 -5.78147592e-04 -5.41311165e-04
      -1.59060757e-03 -7.82991119e-04 -5.33930608e-04 1.43333047e-03
      1.49082346e-03 -6.90367946e-04 -1.12749054e-03 -1.43470126e-03
      -1.52068248e-03 -1.62465672e-03 -9.36014927e-04 -7.88346399e-04
      -2.20205053e-04 1.54905138e-03 1.42882939e-03 4.50653170e-04
      7.44583027e-04 -6.50060538e-04 -8.45636023e-05 -3.50856339e-04
      -1.24147790e-03 -6.85255858e-04 -7.88258738e-04 1.27356313e-03
      7.02923397e-04 -1.51052271e-04 -3.16332444e-04 -2.82872963e-04
      -3.54503718e-04 -3.70087801e-04 -6.87310006e-04 1.66545063e-03
      4.37487208e-04 1.15801825e-03 6.35962118e-04 -4.22637182e-04
      9.51024354e-04 -4.09349886e-04 8.92931057e-05 1.16541007e-04
      -6.49718160e-04 9.33319097e-04 6.13770157e-04 6.53799623e-04
      -1.13931508e-03 -6.65975211e-04 -5.27946220e-04 -1.08749780e-04
      1.05849249e-04 -7.77395544e-05 -7.04503385e-04 -7.20471086e-04
      -1.10169942e-03 -1.30790507e-03 2.41545626e-04 -1.28181418e-03
      7.68225116e-04 -1.53336616e-04 7.29114690e-04 7.24305515e-04
      -4.47964267e-04 -3.08743882e-04 -1.38038117e-03 -7.48404418e-05
      3.97445750e-04 -1.07379351e-03 1.02701376e-03 -5.31653386e-05
      2.48415425e-04 2.12505052e-04 -3.73600429e-04 8.86298367e-04
      -1.44434031e-04 4.31053253e-04 5.50738378e-06 -9.86467465e-04
      7.98526395e-04 -8.46530747e-05 6.11734577e-04 5.12974744e-04
      -3.41824692e-04 7.00878387e-04 -8.05663993e-04 3.00534681e-04
      -2.11161969e-04 -1.53096940e-03 4.15595219e-04 -1.67253209e-04
      4.48015431e-04 3.48470989e-04 4.98966692e-05 8.18288769e-04
      -1.22845196e-03 -4.95558255e-04 -3.75554868e-04 -1.35639403e-03
      -8.07868782e-05 -2.91179349e-05 1.28813810e-03 9.64672246e-04
      -2.48190390e-05 1.22409174e-03 -1.36954919e-03 -3.88084882e-04
      8.46469484e-04 -5.22868184e-04 -2.79656088e-04 -2.95845501e-04
      1.38397969e-04 -1.54149806e-04 -7.76708650e-04 -2.80267966e-04
      -9.16856690e-04 1.17050286e-03 9.42990126e-04 -4.93639498e-04
      -1.37938710e-04 -6.12930744e-04 5.79623680e-04 5.86096896e-04
      -9.08583985e-04 2.08086174e-04 -1.11468071e-04 9.98616801e-04
      -3.40192899e-04 -2.17269780e-03 -1.74119094e-04 -3.84882151e-04
      1.31877547e-03 1.09945470e-03 -3.88871296e-04 3.32179363e-04
      -1.62916398e-03 -2.60119647e-04 2.14885906e-04 -2.51954305e-03
      -3.94989096e-04 -8.59463529e-04 1.69453968e-03 1.61431765e-03
      -3.53272684e-04 1.03845820e-03 -8.12462822e-04 2.13907828e-04</_>
    <_>
      -1.39920216e-03 -1.96887134e-03 -2.69856188e-04 -3.69883855e-05
      2.45678559e-04 -2.77431624e-04 4.60073119e-04 8.90769821e-04
      -6.21841755e-04 -1.40445237e-03 -6.30244147e-04 -1.53515278e-03
      -1.31562294e-04 2.66986113e-04 1.10468513e-03 5.56622923e-04
      -1.86299483e-04 1.25964975e-03 -1.60932559e-05 -3.72229755e-04
      4.59848030e-04 1.18148164e-03 2.93246144e-03 1.42598141e-03
      1.30326225e-04 -6.20806066e-04 -1.17997837e-03 -3.62994382e-04
      -2.34282785e-03 -3.77640477e-04 -2.03609874e-04 -9.49894660e-04
      -3.08140770e-05 2.57383654e-04 -8.34388775e-04 -5.44696522e-04
      -1.07909297e-03 1.14354596e-03 5.84620102e-06 1.15803894e-04
      -5.93324774e-04 -1.72935193e-03 2.47788586e-04 -2.72571197e-04
      1.46410265e-03 1.67820940e-03 6.14669843e-05 6.61931525e-04
      2.57214881e-04 -6.03611115e-04 -5.42900816e-04 -2.31487793e-03
      4.45651007e-04 -1.25108298e-03 1.39648355e-05 -3.39723396e-04
      -8.15013365e-04 2.46863492e-05 -3.88099899e-04 -9.80451121e-04
      1.55617599e-05 -9.17912577e-04 6.49039692e-04 2.82164983e-05
      1.11123562e-04 2.69342592e-04 -4.05860803e-04 1.62331504e-03
      5.29505705e-05 5.02538634e-04 4.34488902e-04 -1.71470351e-03
      -1.39744952e-03 -2.99478858e-03 -5.91710035e-04 -4.60854702e-04
      -1.53991312e-03 5.05584176e-04 1.51109081e-04 4.02673584e-04
      -6.84206607e-04 -1.45842240e-03 -3.78578290e-04 -1.16519521e-04
      3.23699322e-04 -8.47627452e-05 -1.12582906e-03 8.94161873e-04
      -8.81287735e-04 -8.58203450e-04 -2.03545182e-03 -1.55502534e-03
      6.24020526e-04 9.06839094e-04 1.93836854e-03 1.88265450e-03
      -1.82369287e-04 2.51235528e-04 -2.65824026e-03 -2.27527576e-03
      1.20019529e-03 -1.50736817e-03 -1.31010206e-03 -2.87122722e-03
      2.18522575e-04 4.15296090e-04 -8.72753270e-04 7.06868072e-04
      -1.24259433e-03 1.11139333e-03 -7.91918646e-05 -1.09589472e-03
      1.37232314e-03 -2.26799748e-04 2.20149243e-03 9.05776978e-04
      -1.13659271e-03 7.96667227e-05 -2.95286020e-03 -7.44301127e-04
      -6.90133893e-04 1.89699291e-04 3.74311884e-03 9.12719290e-04
      -9.25919448e-04 -9.72478825e-04 -1.83487218e-03 -4.29416483e-04
      -3.29346163e-03 -2.24502455e-03 2.16337954e-04 -1.26252603e-03
      -2.24397355e-03 -9.57375334e-04 -1.65415579e-03 -4.96942841e-04
      -9.27045767e-04 1.33579376e-03 -1.04467082e-03 7.28978601e-04
      1.46480359e-03 -1.75703573e-03 -1.90439954e-04 -9.58642107e-04
      -2.20412412e-03 -1.38945668e-03 -2.33666156e-03 1.81067479e-03
      2.39943317e-03 1.78258005e-03 7.94895168e-04 -5.31883503e-04
      -2.64616683e-03 -2.28898833e-03 -2.87683168e-03 -1.36623741e-03
      -1.07299758e-03 1.40127819e-03 2.16411613e-03 9.82760452e-04
      2.04982259e-03 -1.46317601e-04 -1.32086535e-03 -9.92726767e-04
      -8.20958696e-04 -6.37491117e-04 -9.12799616e-04 1.19469943e-03
      2.41070913e-04 2.58613564e-03 1.56300364e-03 -1.10962184e-03
      -3.02779069e-03 -2.54380447e-03 -2.07529636e-03 -1.94249686e-03
      -2.07399228e-03 -9.89233609e-04 2.55119085e-04 1.71444926e-03
      2.07151379e-03 5.55167906e-04 -1.55349006e-03 -2.30443082e-03
      -3.33158276e-03 -2.11845152e-03 -1.28280872e-03 -1.15224242e-03
      1.07505266e-03 1.63758022e-03 1.57207437e-03 1.05331510e-05
      -1.74040115e-03 -1.71961030e-03 -3.30418767e-03 -2.97175185e-03
      -2.23430572e-03 -3.02377972e-03 3.56185456e-06 1.38618296e-03
      1.89831888e-03 -1.18794898e-03 -2.10088864e-03 -2.27373070e-03
      -1.42391794e-03 -1.19657686e-03 -1.22669479e-03 -1.65555289e-03
      -1.07104250e-03 2.58825906e-03 2.07546959e-03 -7.66873884e-04
      2.80942419e-04 -1.26223802e-03 1.37412199e-03 6.27886562e-04
      -9.21429310e-04 -2.10294180e-04 -3.18936305e-03 1.41307374e-03
      1.77269091e-03 8.37635234e-05 -2.14483938e-03 -1.28313422e-03
      -2.30274256e-03 -2.26566778e-03 -1.83285587e-03 -4.08055540e-03
      -7.85061740e-04 1.69640058e-03 1.72600592e-03 -4.19799122e-04
      -1.07338279e-03 -9.61047306e-04 -4.46518214e-04 -9.29219241e-04
      -1.46876695e-03 -1.78312929e-03 -1.48934021e-03 2.40157521e-03
      1.01279502e-03 -2.78443773e-03 -1.60997396e-03 -1.05005992e-03
      -9.58702120e-04 -6.19530911e-04 -1.29095919e-03 2.37517408e-03
      1.90930127e-03 1.52991561e-03 6.48824731e-04 -9.98168834e-04
      1.18528747e-04 -1.17958873e-03 -7.52060965e-04 -1.27830281e-04
      -4.57156653e-04 1.39264972e-03 1.22767198e-03 6.49307389e-04
      -2.06987304e-03 -2.38220370e-03 3.92544061e-05 -1.23960350e-03
      9.88232350e-05 4.19540796e-04 -5.53948397e-04 -7.06554507e-04
      -2.05892883e-03 -1.06628390e-03 -1.79398849e-04 -1.29748229e-03
      2.46033701e-03 -3.46876535e-04 1.15650252e-03 1.16005668e-03
      -7.18510710e-04 -1.49224012e-03 -2.25583115e-03 -4.36548406e-04
      4.58149967e-04 -6.19865605e-04 8.54658429e-04 -1.24211679e-03
      -8.78550694e-04 -1.93356318e-04 -8.63103487e-04 -2.16646920e-04
      -2.15648339e-04 3.79764067e-04 5.96652215e-04 4.93847823e-04
      1.72725797e-03 -1.04209059e-03 -7.46480655e-04 -4.05746221e-04
      -1.75657845e-03 -1.62864069e-03 -1.10961171e-03 3.33226955e-04
      -6.59764570e-04 -1.65826571e-03 2.22380902e-03 -3.36435623e-04
      6.63778919e-04 9.37098579e-04 -2.81429366e-05 -1.61965610e-04
      -1.78143964e-03 -1.12186978e-03 -1.04665372e-03 -2.23273947e-03
      2.29116390e-03 1.52275024e-04 1.40862784e-03 1.59049581e-03
      -2.20667018e-04 7.51407933e-04 -2.40051677e-03 -8.53274018e-04
      9.97192808e-04 1.09606702e-03 -5.96852391e-04 -9.95974173e-04
      -9.70027584e-04 -8.59508757e-04 -1.15010224e-03 -2.28624372e-03
      -8.88006703e-04 8.15377338e-04 4.68023121e-04 -1.35050184e-04
      -1.07978308e-03 -1.16006925e-03 -1.45553213e-06 -8.95417688e-05
      -4.95540677e-04 3.44767468e-04 -1.07251108e-04 8.80400534e-04
      -5.54339553e-04 -1.06431521e-03 1.20544783e-03 -4.94521577e-04
      1.04094564e-03 1.19763392e-03 -6.31808944e-04 -3.11270531e-04
      -2.39618099e-03 -1.08375866e-03 -8.95472127e-04 -7.12213048e-04
      5.93080011e-04 -1.35746738e-03 1.07216462e-03 1.14440545e-03
      -1.79179609e-04 9.05492227e-04 -1.89817441e-03 -6.71950052e-04</_>
    <_>
      -1.69425306e-03 -8.93845863e-04 3.32034571e-04 -1.27514626e-03
      5.84799098e-04 1.08862761e-03 3.80498794e-04 9.33265954e-04
      -6.01183099e-04 -2.21302081e-03 -1.98300928e-03 -8.64048256e-04
      2.04845658e-03 -1.74409506e-04 1.70088722e-03 2.06779107e-03
      -1.98589914e-04 1.43964426e-03 -1.37242919e-03 -1.79469434e-03
      1.13786047e-03 1.46954122e-03 2.59100413e-03 4.35845432e-04
      1.20652211e-03 4.53836226e-04 -1.18118210e-03 1.20596378e-03
      -7.33309891e-04 9.97941243e-05 5.11338352e-04 -1.07274391e-03
      5.95075020e-04 -5.29312063e-04 7.97690533e-04 1.21326989e-03
      -1.14486634e-03 2.51141726e-03 3.90537345e-04 1.07040541e-04
      -2.65654735e-03 -1.63815555e-03 2.70702830e-03 1.90703518e-04
      2.62420066e-03 2.62495736e-03 -1.71683096e-05 -1.79058436e-04
      -8.64394533e-04 -2.84528779e-03 -1.86748418e-03 -1.72413932e-03
      1.50242844e-03 -3.54148680e-04 1.96923828e-03 1.85319118e-03
      -1.69016275e-04 8.33600352e-05 -8.30123201e-04 -1.93234789e-03
      -8.94019249e-05 -1.85517350e-03 1.56719738e-03 -2.12664658e-04
      1.83053489e-03 1.81086606e-03 -2.88306241e-04 3.28528020e-03
      1.77853493e-04 4.62272408e-04 3.66649474e-04 -1.18616922e-03
      -1.53217319e-04 -6.33962394e-04 5.66129456e-04 6.05626090e-04
      -5.49706805e-04 1.46411126e-03 -6.81254489e-04 1.04188883e-04
      -1.61189050e-03 -1.31336565e-03 1.05471024e-03 -4.71156294e-04
      4.99647227e-04 8.67923372e-04 -4.42603778e-04 -5.12345345e-04
      -3.21925239e-04 -1.64006429e-03 -1.66435831e-03 -2.01316085e-03
      1.03286025e-03 1.02361744e-04 1.92144047e-03 2.10241182e-03
      -5.69004216e-04 1.77059567e-03 -6.96251285e-04 -1.88909459e-03
      5.69071912e-04 -4.25864477e-04 1.04114891e-03 -6.67525805e-04
      1.41020777e-04 1.36975752e-04 -4.97888017e-04 5.68767427e-04
      -2.24220275e-04 5.96324331e-04 5.45506540e-04 -6.12677948e-04
      1.94921670e-03 -7.37211027e-04 1.12175324e-03 1.35059585e-03
      -1.22336124e-03 1.20183395e-03 2.72881531e-04 9.68021050e-04
      -5.54536411e-04 -1.06787204e-03 2.71501322e-03 7.99624017e-04
      -2.82496650e-04 -1.24983303e-03 -1.60247798e-03 1.22911326e-04
      -6.72038368e-05 -3.53993644e-04 1.01993023e-03 -2.40484090e-03
      -3.16914148e-03 -1.13917503e-03 -1.28226960e-03 -8.27010488e-04
      -1.23984995e-03 2.04181694e-03 1.49801525e-03 2.08664383e-03
      1.62614870e-03 -1.81798969e-04 -1.68625743e-03 -1.62247068e-03
      -1.61765737e-03 -1.74613204e-03 -8.97695601e-04 7.28874991e-04
      1.62483647e-03 1.53459748e-03 1.34597113e-03 -9.45613021e-04
      -3.91605264e-03 -1.61634665e-03 -1.34697824e-03 -1.47623662e-03
      -9.77956457e-04 -1.19932054e-04 2.17176625e-03 1.24006020e-03
      1.32224429e-03 -1.62889669e-03 -1.92931877e-03 -7.70971878e-04
      -2.32531194e-04 -3.98016215e-04 -9.09118913e-04 7.26797036e-04
      5.25273092e-04 2.33354280e-03 1.89244922e-03 -1.64512778e-03
      -9.48916073e-04 -9.83501785e-04 -1.01324776e-03 -1.37768278e-03
      -1.39602215e-03 -1.38130749e-03 -7.77229958e-04 1.63121382e-03
      1.95477810e-03 -6.18862279e-04 -2.12151092e-03 -9.71324276e-04
      -8.18589237e-04 -1.11797056e-03 -1.08854182e-03 -1.90805877e-03
      3.18557693e-04 2.09703413e-03 1.16791378e-03 3.83778999e-04
      -1.09759090e-03 -1.29984971e-03 -1.49841246e-03 -1.63406914e-03
      -1.75574014e-03 -2.49562692e-03 -6.47320470e-04 1.39209442e-03
      2.82514282e-03 -2.25992349e-04 2.56495783e-04 -8.59908294e-04
      -1.54739269e-03 -2.04776018e-03 -9.93617810e-04 -1.98633363e-03
      -6.51252747e-04 2.20438023e-03 2.92614824e-03 1.03571941e-03
      8.36345134e-05 -1.75895216e-03 -9.84597835e-04 -1.41670194e-03
      -2.32480699e-03 -5.38333436e-04 -1.33802183e-03 2.92814081e-03
      1.12548342e-03 8.35974133e-05 -1.82726094e-03 -1.41179143e-03
      -1.91093271e-03 -2.17237789e-03 -1.15472975e-03 -1.98806613e-03
      2.62875838e-05 1.24851184e-03 1.91076263e-03 1.26958592e-03
      1.94552401e-03 -7.62166106e-04 -1.04054017e-03 -1.80578511e-03
      -3.22077447e-03 -9.11801704e-04 -4.11178131e-04 2.06356053e-03
      2.17502099e-03 1.13113946e-03 -4.37153067e-04 -6.77078904e-04
      3.02498112e-04 2.21312584e-05 -7.63221353e-04 2.88651558e-04
      -4.02662554e-04 1.34101964e-03 9.93834459e-04 -6.27659620e-06
      -5.63620939e-04 -8.13942810e-04 1.12894562e-03 9.51556605e-04
      -5.48167620e-04 4.92833555e-04 1.23786391e-03 8.82149325e-04
      -4.32181288e-04 -3.61710932e-04 -9.83365608e-05 -6.11096795e-04
      6.09214534e-04 2.60665343e-04 -8.34551640e-04 -4.12011100e-03
      -3.63343838e-03 -1.66188017e-03 1.95529778e-04 -1.97249046e-03
      2.58142216e-04 -1.26385584e-03 1.92753167e-03 1.51865731e-03
      -1.36802346e-03 -1.65709422e-03 -3.35363811e-03 -2.84053996e-04
      6.83790888e-04 -5.42049587e-04 -3.15736247e-06 -7.67169637e-04
      9.22347419e-04 8.88655661e-04 -6.64218271e-04 -4.14868337e-05
      -4.63614095e-04 9.36002994e-04 5.73654543e-04 1.13699457e-03
      5.27486496e-04 -4.79360140e-04 9.37357720e-04 1.10708375e-03
      -3.51892581e-04 -4.77278314e-04 -9.06438800e-04 7.30003114e-04
      -1.04527443e-03 -1.74985209e-03 7.21925986e-04 -9.03062697e-04
      1.18698028e-03 1.08673621e-03 -8.83628905e-04 7.80709845e-04
      -2.15788069e-03 -1.10338535e-03 -1.17981958e-03 -1.31899293e-03
      6.97575510e-04 -2.90655502e-04 1.40542036e-03 1.30646268e-03
      2.81989516e-04 1.41985377e-03 -2.30772048e-03 -1.43449928e-03
      7.60971918e-04 8.86971946e-04 -7.51096581e-04 -4.91728482e-04
      1.56658542e-04 1.08360415e-04 -3.88102839e-04 -1.10439527e-04
      -1.20049546e-04 6.91658934e-04 1.18061039e-03 4.92477964e-04
      7.21436227e-04 -4.56385984e-04 3.82407052e-05 -8.05430755e-04
      -7.48803373e-04 1.58920710e-03 1.87672311e-04 2.13936972e-03
      -1.90319563e-03 -1.71062490e-03 -1.07697015e-05 -2.34732244e-04
      5.37282613e-04 5.21166367e-04 -3.25158559e-04 -8.16743122e-04
      -2.82539683e-03 -1.95120357e-03 -3.43571330e-04 -1.73375139e-03
      7.66567478e-04 -7.71983003e-04 4.48423147e-04 6.81524456e-04
      -3.80755577e-04 6.12442032e-04 -2.60006078e-03 1.31343448e-04</_>
    <_>
      8.29569239e-04 5.54684375e-04 2.49548757e-04 -3.53394193e-04
      -8.14709056e-04 -1.00802316e-03 -5.30968362e-04 -5.39961329e-04
      -4.04255203e-04 6.46753295e-04 2.27108423e-04 3.86608095e-04
      -2.18332512e-04 -2.93524965e-04 -9.61920538e-04 -1.05874869e-03
      -8.41767542e-05 -1.15535967e-03 -2.20951097e-05 2.46138661e-04
      1.15656643e-03 5.60588014e-05 5.07600897e-04 -1.02425856e-03
      1.06614025e-04 -1.03306666e-04 -8.84293288e-04 9.10472474e-04
      -1.38512223e-05 1.13512855e-03 -7.47432568e-05 -2.17101187e-05
      -1.07414450e-03 -1.24967960e-03 -8.12900485e-04 -5.93800505e-04
      -2.59348628e-04 2.42199618e-04 1.31641820e-04 6.04041088e-05
      -8.98506983e-07 1.26571995e-05 -9.72623297e-04 -4.07178566e-04
      -5.71575656e-04 -3.61886021e-04 -7.71976556e-05 -6.69520290e-04
      4.40474803e-04 3.44556960e-04 9.08258313e-04 6.32984098e-04
      6.38075231e-04 5.73002580e-05 2.12093782e-05 -1.94506079e-04
      -2.93242047e-04 -5.95500343e-04 6.38256024e-04 6.63269893e-04
      -4.79770417e-04 8.27469194e-06 -1.52104083e-04 -1.71331561e-03
      -1.75672176e-03 -1.40352827e-03 -7.19650299e-04 -1.20380661e-03
      -6.91709356e-05 -2.86639930e-04 3.65922519e-04 1.38817693e-03
      1.10855617e-03 4.47349943e-04 -3.38900776e-04 -9.92924324e-04
      -9.46952205e-04 -1.39612029e-03 -7.32768094e-04 2.44326686e-04
      5.82607172e-04 1.60011856e-04 2.35713276e-04 -1.46582170e-04
      -3.71144415e-04 -5.10668848e-04 -1.64430559e-04 -4.44382167e-04
      1.00982135e-04 4.33913898e-04 8.03307921e-04 3.24995635e-04
      -9.08986985e-05 -1.00159796e-03 -1.06170506e-03 -8.15082924e-04
      -7.75820459e-04 -3.25626024e-04 -2.81824305e-05 1.03196595e-03
      8.75336991e-04 1.49531243e-03 1.03022007e-03 4.34461572e-06
      -6.24373788e-04 -1.04753266e-03 -8.52091354e-04 -1.00561534e-03
      -9.82645317e-04 3.85234162e-04 7.66255776e-04 7.90579361e-04
      2.02571711e-04 -1.29808777e-03 -1.22057984e-03 -1.26039761e-03
      -1.21438445e-03 6.20294537e-04 -1.43854239e-04 9.33811069e-04
      5.18152490e-04 -1.74770248e-04 2.36956053e-04 -7.05162587e-04
      5.64859693e-05 -2.12202154e-04 -8.81935877e-04 5.08494151e-04
      -3.70452355e-04 4.04211547e-04 3.74791329e-04 -2.57919077e-04
      -9.63764964e-04 -1.57515903e-03 -9.46623855e-04 -5.14692918e-04
      -3.09210125e-04 3.71380360e-04 -3.31461837e-04 6.46619417e-04
      7.43951125e-04 -1.82547083e-04 -2.36631793e-04 -1.59854273e-04
      -1.30945118e-04 -1.13808870e-04 -5.55167266e-04 6.09287759e-04
      -4.47188999e-04 6.99545606e-04 6.94349816e-04 -1.05751882e-04
      -5.44075272e-04 -9.91141889e-04 -8.18028522e-04 -1.08871092e-04
      -1.73648485e-04 7.20797630e-04 -3.96269112e-04 8.62497138e-04
      5.61947119e-04 6.49520545e-04 5.05158911e-04 -1.99940731e-03
      -2.08248757e-03 -1.49282895e-03 -6.43138366e-04 -4.89238708e-04
      -1.91735540e-04 4.60752635e-04 9.50402464e-04 1.66236085e-03
      1.73684780e-03 -3.54163698e-04 -1.37332932e-03 -1.57453399e-03
      -1.79091084e-03 -1.67459773e-03 -9.32273339e-04 1.00967773e-04
      1.45712425e-03 7.30393687e-04 7.66666082e-04 -1.36351283e-03
      -1.44809298e-03 -8.20555317e-04 -5.58296568e-04 -2.80853943e-04
      -4.16670344e-04 9.01652675e-04 1.36057218e-03 1.77341641e-03
      1.71101303e-03 -1.36395814e-04 -6.79857447e-04 -1.01716246e-03
      -1.54042861e-03 -1.91929319e-03 -9.53283685e-04 2.61138281e-04
      1.12938206e-03 1.45762158e-03 1.81232276e-03 1.17942918e-05
      -5.72470017e-04 -7.66088895e-04 -6.99669181e-04 -7.37992232e-04
      -7.19761709e-04 4.61580668e-04 7.40034331e-04 1.44858845e-04
      3.32110794e-04 -8.94964731e-04 -4.20919823e-04 -3.82017693e-04
      -4.41494543e-04 9.63971601e-04 -3.83070030e-04 5.81061235e-04
      1.58291266e-04 8.53239035e-04 1.47300656e-03 5.53712191e-04
      2.90644792e-04 -4.01644502e-05 -8.14899569e-04 -1.27458305e-03
      -7.46107020e-04 -1.67902268e-04 -7.95556931e-04 -9.40503320e-04
      -5.70673612e-04 -9.09934519e-04 6.42304891e-04 7.01176061e-04
      -1.17197327e-04 7.97886634e-04 -1.71721738e-04 -4.55590634e-04
      4.49840358e-04 -2.37034328e-04 7.60318289e-05 -6.24598688e-05
      -4.17775504e-04 -7.25235092e-04 -6.61861966e-04 9.19338374e-04
      -4.17937670e-04 7.93178449e-04 5.02521347e-04 -3.42196756e-04
      -1.37730880e-04 -3.80211510e-04 -3.61266953e-04 -1.25083374e-04
      5.88686307e-05 6.57071534e-04 -2.88977666e-04 6.63306098e-04
      8.75799306e-05 -3.91190493e-04 1.65601828e-04 -1.40049728e-04
      -5.17474895e-04 -6.62302715e-04 -5.81640867e-04 -6.37692283e-04
      -1.25549652e-03 1.02752470e-04 4.22603247e-04 -9.78350756e-04
      -5.59511303e-04 -4.73510445e-04 -8.13963998e-04 -7.40039686e-04
      -2.52648460e-04 -1.90019797e-04 -4.88239137e-04 4.64032550e-04
      6.87648077e-04 -8.43975286e-05 4.96772525e-04 -6.56388176e-04
      -6.07369409e-04 -4.35168913e-04 -3.25588597e-04 -6.46425760e-04
      -7.51807471e-04 5.47306554e-04 9.66036459e-04 1.19503529e-03
      1.58701453e-03 3.75913922e-04 4.20310302e-04 -2.37245738e-04
      -1.49307190e-03 -2.40442296e-03 -1.63124665e-03 -3.29486909e-04
      1.24981656e-04 -4.10534558e-04 -3.85101826e-04 -5.41251095e-04
      -7.67697522e-04 -6.79295219e-04 -2.99194682e-04 -7.91669881e-04
      -2.42961221e-04 3.94147588e-04 -3.23595363e-04 3.02834727e-04
      6.71512040e-04 2.02472089e-04 6.49244430e-06 -3.47189605e-04
      -7.89962069e-04 -1.53194589e-03 -1.22463948e-03 -9.13093041e-04
      -6.11188181e-04 -1.74530578e-04 1.16715184e-03 7.10568158e-04
      1.84237782e-03 1.08761562e-03 -9.87179461e-04 -1.66428508e-03
      -1.14668813e-03 -7.27202219e-04 -9.31056740e-04 -1.54389220e-03
      -8.63050926e-04 -4.91380692e-04 1.17977615e-03 1.76027149e-03
      -1.09618763e-04 7.93853600e-04 -3.49742098e-04 -5.71941200e-04
      -7.34111818e-04 -1.33809721e-04 -2.47989374e-04 2.31160229e-04
      8.68314528e-04 4.53868328e-04 -5.94957906e-04 -5.98455779e-04
      -9.22246429e-04 -8.69871816e-04 -4.43813013e-04 -8.64878355e-04
      -5.31070575e-04 -3.43749824e-04 1.22714997e-03 8.73008801e-04
      -2.52494181e-04 9.35214164e-04 -4.43547237e-04 -3.72826296e-04</_>
    <_>
      5.10470360e-04 8.12159211e-04 8.86017981e-04 2.15701977e-04
      -4.00522636e-04 -5.55465987e-04 4.55621375e-05 6.10942952e-04
      -8.14518193e-04 3.94296454e-04 -3.69942514e-04 -5.01360686e-04
      -3.31874064e-04 -1.85988276e-04 -3.54408112e-04 -5.53648686e-04
      -7.52957703e-06 -4.37304785e-04 -9.73051530e-04 -2.49414443e-04
      1.62419950e-04 -1.57645706e-03 -1.81065945e-04 -7.30420506e-05
      8.40263674e-04 9.52510163e-04 2.23264622e-04 2.43550399e-03
      4.07999294e-04 9.22451902e-04 -1.07471470e-03 -2.53802701e-03
      -1.02987851e-03 -1.48252421e-03 -4.88482125e-04 -4.58814786e-04
      -7.72088024e-05 4.72297077e-04 7.39358598e-04 2.26737859e-04
      -8.85656802e-04 -1.22963334e-03 -1.36090443e-03 -3.38807527e-04
      -2.25369906e-04 3.20095060e-05 -1.51354456e-04 9.03832552e-05
      9.79520555e-05 -7.23588048e-04 3.74051124e-05 -1.27439061e-03
      -1.27883439e-04 -4.31066321e-04 1.02523314e-04 2.40164314e-04
      -2.29999190e-04 3.03903507e-04 2.52563710e-04 2.71504628e-04
      -3.72896175e-04 -1.09345245e-03 -2.08412050e-04 -1.23434712e-03
      -5.13066072e-04 -4.21566307e-04 -3.50942981e-04 -1.01808328e-04
      5.45066083e-04 6.65025669e-04 1.35117778e-04 -4.26081737e-04
      6.56428747e-04 -6.27633592e-04 6.96990173e-04 8.76431703e-04
      -1.85676836e-05 1.88015751e-04 -1.61760042e-07 1.49904401e-03
      2.66027870e-04 -1.36407127e-03 2.32395250e-04 -4.11057088e-04
      -3.68408742e-04 -4.86367033e-04 -6.59732148e-04 -9.09787603e-04
      -1.12961163e-03 5.38698259e-05 1.28258066e-03 9.31194736e-05
      6.56332180e-04 -7.20502983e-04 -1.35153171e-03 -1.60136446e-03
      -1.48814055e-03 -8.46924551e-04 -8.84517562e-04 1.05672190e-03
      7.78749993e-04 5.59326087e-04 1.36443111e-03 -9.53474315e-04
      -6.12636912e-04 -5.66671893e-04 -8.67993978e-04 -1.07516581e-03
      -1.28328172e-03 1.04396709e-03 2.38774461e-03 1.75612140e-03
      1.21344754e-03 -1.98427984e-03 -1.76384731e-03 -1.57701818e-03
      -1.57650211e-03 6.80410885e-04 -3.06902017e-04 2.07473058e-03
      -7.54304172e-04 -2.98004947e-03 -1.37808977e-03 -7.42466829e-04
      5.77295024e-04 7.32243352e-04 2.77522107e-04 2.64325226e-03
      2.21315306e-04 -5.69901204e-05 -3.81713617e-04 -1.61678763e-03
      -9.62065067e-04 -1.31423899e-03 -8.43699963e-04 -5.55026578e-04
      -4.13629779e-04 -1.14807328e-04 -3.34767392e-04 3.35321063e-04
      1.06871908e-03 -1.94641796e-03 -1.94315054e-03 -7.08131527e-04
      -3.06700764e-04 3.96776450e-04 2.11871913e-04 2.66409805e-03
      2.78163963e-04 1.57491432e-03 1.14369264e-03 8.28543678e-04
      6.11208961e-04 -9.72597045e-04 -1.41103251e-03 -1.05468673e-03
      -1.03710592e-03 -2.21441907e-04 -8.43708985e-04 1.21823547e-03
      8.75456244e-05 -1.21180456e-04 7.74070038e-04 -1.17351150e-03
      -1.02696498e-03 -1.09231030e-03 -6.62113773e-04 -9.25531902e-04
      -4.27257852e-04 5.63520916e-05 2.80087523e-04 -2.46073614e-04
      9.09184804e-04 -6.11713389e-04 -7.00721110e-04 -8.05340474e-04
      -9.60314763e-04 -1.08803599e-03 -7.13394897e-04 -5.45643154e-04
      9.49236332e-04 1.01481762e-03 2.20222655e-03 -5.17491018e-04
      -1.00823853e-03 -1.20676681e-03 -1.13792054e-03 -1.56968436e-03
      -1.40433584e-03 -4.30171232e-04 6.58759789e-04 2.12968909e-04
      1.12641451e-03 -3.10065399e-04 -1.02138511e-04 -4.00597928e-04
      -8.79358209e-04 -4.26710554e-04 -9.86304600e-04 -9.47340508e-04
      8.80379928e-04 5.70996664e-04 1.10312598e-03 -1.31075899e-03
      -1.23059668e-03 -8.36590014e-04 -8.64797272e-04 -4.79318551e-04
      -2.75688013e-04 4.51541913e-04 1.26158877e-03 6.44056476e-04
      1.23162987e-04 -1.53527723e-03 -5.22798626e-04 -8.03412695e-04
      -1.59778667e-03 4.64520796e-04 -6.59682046e-05 6.80835510e-04
      2.05106073e-04 3.11649084e-04 9.64411651e-04 8.13659790e-05
      2.92808341e-04 3.12757649e-04 -3.14578268e-04 9.48364323e-04
      -1.92118576e-04 -1.68757062e-04 -6.87866181e-04 -4.69612365e-04
      7.40623160e-04 3.69745656e-04 4.23558522e-04 9.16698715e-04
      -9.98267671e-04 -2.50848934e-05 -6.50987262e-04 -5.27300290e-04
      1.85545723e-04 -1.33386930e-03 -1.16576673e-03 -3.55269585e-04
      -4.83325013e-04 -1.51285669e-04 1.65003803e-04 2.57517304e-03
      -2.22666422e-04 9.76993586e-04 1.04913814e-03 5.54058061e-04
      9.31973744e-04 -4.39526193e-04 -7.85723852e-04 -5.05189411e-04
      -3.91243986e-04 5.40354056e-04 -3.05606925e-04 9.63530445e-04
      -1.46669903e-04 -7.07685656e-04 -9.65478655e-04 -2.49715667e-04
      -5.70333097e-04 -6.26763038e-04 -3.90216912e-04 -2.45568110e-04
      -1.20965473e-03 -4.48045146e-04 8.28773773e-04 -6.29610789e-04
      -1.28912332e-03 -4.92165564e-04 -9.74759634e-04 -8.30423203e-04
      -2.32767707e-04 -2.52255850e-04 -1.14348033e-04 3.56073637e-04
      8.64169851e-04 8.41167872e-04 2.95191817e-03 1.74986963e-05
      -4.89275728e-04 -5.18082059e-04 -6.07334718e-04 -1.13693590e-03
      -1.37405971e-03 -1.85933968e-04 1.66725222e-04 7.53590488e-04
      1.89890922e-03 1.07075146e-03 1.44134171e-03 9.21143685e-04
      -3.60225909e-04 -1.17389672e-03 -1.97889074e-03 -1.35086582e-03
      1.04751234e-04 -4.38949297e-04 2.47294374e-04 -1.58401337e-04
      -6.48122164e-04 -8.41556117e-04 -4.15237970e-04 -1.09112228e-03
      -6.38722093e-04 -3.66669177e-04 -1.36255985e-03 -7.90941296e-04
      5.14503103e-04 7.65097793e-04 7.62319018e-04 1.89313898e-04
      -1.38208288e-05 -1.12568086e-03 -1.94610492e-03 -1.85972045e-03
      -5.76222374e-04 -3.78771976e-04 1.33742590e-03 1.28286181e-03
      1.74306007e-03 1.15664268e-03 -3.73336341e-04 -5.67394018e-04
      -1.47630612e-03 -1.12826261e-03 -9.61767393e-04 -8.86324095e-04
      3.83901119e-04 6.92801201e-04 1.83733075e-03 2.07511196e-03
      -6.12941687e-04 8.68279167e-05 -1.05270417e-03 -7.82491930e-04
      -8.34897102e-04 -1.04496779e-03 1.05214822e-04 4.28890635e-04
      1.42149301e-03 8.32960941e-04 -3.43053689e-04 -3.08726827e-04
      -1.17579440e-03 -9.84352781e-04 -4.61859017e-04 -1.06415944e-03
      -8.22457718e-04 -3.83389124e-04 1.01093645e-03 5.20283065e-04
      -7.89421843e-04 -5.41717454e-04 -4.66059719e-04 -1.28010463e-04</_>
    <_>
      2.98888161e-04 5.95771067e-04 7.29150197e-04 6.65170723e-04
      -6.84357248e-04 -8.10202619e-04 -3.44214379e-04 -3.15933983e-04
      -3.83326667e-04 -5.42166208e-06 -5.81237546e-05 4.59875970e-04
      -1.24123835e-04 8.05775126e-05 -8.52726109e-04 -9.53209819e-04
      -7.22416851e-04 -1.19126611e-03 -3.55826633e-04 -3.46391113e-04
      5.09092701e-04 -1.01838750e-03 1.17047934e-03 3.78432669e-05
      1.01485453e-03 1.36497628e-03 -3.04458343e-04 1.46181905e-03
      -2.44784239e-03 1.37254465e-04 -8.44926166e-04 -8.60278902e-04
      -2.19743606e-06 -5.91555843e-04 -5.98566665e-04 -5.06501121e-04
      -2.85941758e-04 -3.29875300e-04 -8.97817139e-04 -1.04384311e-03
      -1.38877681e-03 -2.81783839e-04 -1.15004939e-03 -1.52565510e-04
      -2.73344514e-04 3.33758129e-04 -4.22743760e-04 -1.28395652e-04
      8.32525664e-04 -1.50232564e-03 1.89547180e-04 -4.28993109e-04
      1.19682553e-03 -1.76734640e-04 -6.22673891e-04 -1.66644269e-04
      -5.64988994e-04 -4.04055638e-04 8.47640156e-04 -5.44177426e-04
      -9.44983563e-04 1.01720740e-03 4.17955482e-04 -5.53894788e-04
      -7.26836384e-04 -5.46555209e-04 -4.09466069e-04 -9.18816426e-04
      -6.42374871e-05 -1.70893257e-03 6.21347281e-04 9.88526503e-04
      6.04846166e-04 -1.15973980e-03 -2.75189901e-04 3.10060685e-04
      9.12900487e-06 2.47037911e-04 1.93169151e-04 6.86540327e-04
      -3.85082792e-04 -6.96551346e-04 1.00194977e-03 -4.14355338e-04
      -6.67323067e-04 -8.20328947e-04 -6.56338059e-04 -1.39759062e-03
      -1.11576298e-03 -1.19410770e-03 4.03289218e-04 2.79966800e-04
      1.38916413e-03 -2.40443333e-04 -4.09557775e-04 -7.28695188e-04
      -7.57233764e-04 3.22714186e-04 -1.10692263e-03 -3.83467122e-04
      7.62833050e-04 1.33623951e-03 8.64227710e-04 -1.56725617e-03
      -5.17239445e-04 -5.00211492e-04 -1.25952682e-03 -9.41527134e-04
      -1.79613894e-03 1.11575401e-03 1.33032829e-03 1.20979804e-03
      2.28730938e-03 -2.11187144e-04 7.93863728e-05 -3.57679324e-04
      -2.49621179e-03 2.05738144e-03 -1.70012366e-03 5.37350308e-04
      1.41350043e-04 -1.43662281e-03 1.39667500e-05 -3.52514355e-04
      5.33118146e-04 9.41804727e-04 -3.85164021e-04 1.93326012e-03
      -2.77490937e-03 -1.01419468e-03 -5.70973963e-04 2.66858231e-04
      5.27012395e-04 -2.67017836e-04 -2.74460879e-04 -4.98445188e-05
      -5.74460428e-04 -6.06453337e-04 -3.16809420e-03 -9.54174204e-04
      1.31617521e-03 -1.17192871e-03 -1.59280014e-03 -1.16939633e-03
      -9.44461790e-04 -2.33041690e-04 1.60682976e-04 2.67574424e-03
      -3.36868863e-04 7.38695730e-04 7.70985498e-04 8.65616021e-04
      3.24030960e-04 -9.20737686e-04 -9.03991109e-04 -4.50541964e-04
      -5.04854601e-04 1.15039013e-03 -1.70476316e-03 4.55132686e-04
      1.14078044e-04 1.66911772e-03 2.49196333e-03 -2.81907036e-04
      -9.77025717e-04 -9.55645868e-04 -5.38799271e-04 -1.67598762e-03
      -1.67053973e-03 -1.97459385e-03 4.74138389e-04 3.10130359e-04
      5.10598300e-04 -1.73666200e-03 -1.61077024e-03 -1.07307860e-03
      -5.46396186e-04 -5.62546193e-04 -6.70581125e-04 -7.64612865e-04
      1.43639476e-03 1.50540506e-03 2.21551955e-03 -3.02509550e-04
      -1.34659209e-03 -1.35455362e-03 -9.75703646e-04 -2.18963623e-03
      -2.22160155e-03 -8.67164345e-04 1.24657364e-03 7.68870465e-04
      1.93987798e-03 -5.98850020e-04 -5.40973502e-04 -9.05993918e-04
      -8.34003033e-04 -2.19121226e-03 -2.36776378e-03 -9.51542170e-04
      1.33138336e-03 7.81850424e-04 1.30639656e-03 -1.72859768e-03
      -7.29029940e-04 -5.52643149e-04 -1.06946495e-03 -4.07528365e-04
      -2.60487170e-04 1.25780434e-03 1.43685576e-03 4.59478353e-04
      6.66536100e-04 -4.47974657e-04 7.95300701e-04 -4.67302452e-04
      -2.36394047e-03 2.23441835e-04 -6.37328951e-04 4.53746616e-04
      8.46946146e-04 7.35566602e-04 9.24142136e-04 2.31620623e-04
      2.36343578e-04 2.77319283e-04 -5.59771201e-04 -1.08585227e-03
      -1.39069255e-03 1.17782038e-04 -7.64217984e-04 -1.52709195e-03
      -1.13021454e-03 -8.77864775e-04 -2.09318983e-04 4.95319429e-04
      -1.68213027e-03 -2.55920895e-04 -7.39241252e-04 -1.79769471e-04
      -2.89755844e-04 -2.68479902e-03 -2.93743983e-03 -1.20482559e-03
      -1.36207661e-03 -1.01889146e-03 5.07372664e-04 4.29497240e-03
      1.01448654e-03 9.10357921e-04 1.10752159e-03 3.89015680e-04
      -8.16719403e-05 -1.12222950e-03 -1.49092323e-03 -1.21308200e-03
      6.80669182e-05 2.15509464e-03 -3.70447495e-04 9.33540927e-04
      -1.36651332e-03 -6.78850163e-04 -2.03416450e-03 -4.65197227e-04
      -1.07712846e-03 -1.00920803e-03 -3.36959783e-04 6.38515397e-04
      -7.79195398e-04 -9.90468659e-04 7.98160676e-04 -1.86839752e-04
      -1.09122728e-03 -7.72180152e-04 -1.87414582e-03 -1.64468098e-03
      -1.05536841e-04 -2.75875325e-04 9.12801421e-04 9.39123391e-04
      1.41668983e-03 1.21662696e-03 3.06800380e-03 -4.26095648e-04
      -1.45783368e-03 -1.57975615e-03 -8.35121202e-04 -1.88457815e-03
      -2.04465864e-03 -2.09693208e-05 5.97075326e-04 1.47462182e-03
      2.17480608e-03 1.67011109e-03 1.22065842e-03 8.65129288e-04
      -4.47945087e-04 -3.42165818e-03 -3.41748213e-03 -1.41402008e-03
      1.74447880e-04 1.70688145e-04 4.11571906e-04 -4.04921564e-04
      -1.60663622e-03 -1.72306527e-03 -1.24919068e-04 -2.02365732e-03
      1.37817435e-04 5.93653182e-04 -1.84643979e-03 -5.00787515e-04
      5.54433675e-04 8.51471035e-04 -5.16057241e-07 2.74184949e-05
      1.36933848e-03 -2.07597832e-03 -2.81889807e-03 -2.82919104e-03
      -3.64475447e-04 -4.77582100e-04 1.04166812e-03 1.38326059e-03
      1.93397736e-03 1.87582674e-03 8.78579958e-05 -1.57612772e-03
      -2.25409074e-03 -1.64640427e-03 -1.94181199e-03 -1.55829801e-03
      -8.16489686e-04 -7.09711050e-04 1.78729766e-03 2.37908191e-03
      3.92622198e-04 7.26426311e-04 -1.45797594e-03 -1.77751284e-03
      -9.62503371e-04 4.21485107e-04 -3.09992727e-04 -9.06304485e-05
      1.09872245e-03 1.22908468e-03 8.60201952e-04 -4.64641053e-04
      -1.38944970e-03 -1.75875856e-03 -2.67835800e-04 5.94077748e-04
      -7.99006782e-04 -8.83001718e-04 1.22200430e-03 7.52160558e-04
      5.06361772e-04 5.63946669e-04 1.22653091e-06 2.15447799e-05</_>
    <_>
      8.73513694e-04 5.27806755e-04 1.14353909e-03 5.16397355e-04
      -7.56936424e-05 1.46607839e-04 -5.71514975e-05 -3.20720777e-04
      -1.27503229e-03 6.03507739e-04 -1.61377233e-04 -6.59237121e-05
      7.77436537e-04 2.47554181e-05 -4.28973057e-04 -3.78769066e-04
      -6.54680422e-04 -1.75543316e-03 -1.25226949e-03 -4.46964259e-04
      5.53843449e-04 -2.09603342e-03 -3.95910611e-05 -7.59433780e-04
      1.08662841e-03 1.11008459e-03 -6.61890726e-06 2.16251891e-03
      3.14538571e-04 8.01367452e-04 -9.23205283e-04 -1.61030423e-03
      2.79247906e-04 -1.12043635e-03 -3.38773825e-04 -9.05857887e-04
      -6.64285617e-04 -4.55027941e-04 -4.05098341e-04 -8.54420185e-04
      -1.61867240e-03 -2.64733681e-04 -7.50293329e-05 -4.69489787e-05
      -5.18732122e-04 2.35862943e-04 -5.08791127e-04 -1.24498841e-03
      -4.38093528e-04 -1.99829624e-03 1.03390863e-04 -8.27479016e-05
      1.85313460e-03 2.12076295e-04 1.06655272e-04 5.21479058e-04
      -6.19538550e-05 6.24927925e-04 1.06181651e-04 -3.32071097e-04
      -1.52262265e-03 9.13911790e-05 2.12927186e-03 -9.24756285e-04
      -1.01514335e-03 -1.28172955e-03 -8.83396133e-04 -1.47055904e-03
      -1.35530962e-03 -2.32882984e-03 4.38359275e-04 1.12592091e-03
      3.22083081e-03 -4.97162633e-04 9.14332166e-04 1.46482850e-03
      -1.86512349e-04 4.77970025e-04 3.33754870e-04 1.49478472e-03
      -9.36201948e-04 -1.60509336e-03 2.06787954e-03 -1.03349146e-03
      -7.87034398e-04 -5.07069519e-04 -4.93963715e-04 -1.00749382e-03
      -1.20719057e-03 -7.51765037e-04 1.50617782e-03 -1.76038797e-04
      1.47851111e-04 -1.57530908e-03 -7.34017463e-04 -8.34807986e-04
      -9.99965006e-04 3.49433307e-04 -1.35383522e-03 4.34250513e-04
      6.10787945e-04 1.61459460e-03 2.54379190e-03 -1.31347287e-03
      -8.03441566e-04 9.35448916e-05 -1.45303798e-04 -1.75215202e-04
      -4.48355917e-04 1.18133507e-03 1.96523219e-03 8.48379801e-04
      1.22855627e-03 -2.04992550e-03 -2.08679587e-03 -9.00689338e-04
      -1.33978529e-03 2.46145669e-03 -1.23794202e-03 1.26967358e-03
      -2.78082851e-04 -3.14784748e-03 -1.89449801e-03 -9.76077921e-04
      1.90329556e-05 -3.20880936e-04 -5.38786757e-04 2.69927108e-03
      5.34574618e-04 4.90018341e-04 -7.37940602e-04 -1.04735803e-03
      -7.88404723e-04 -1.04328943e-03 -1.28002313e-03 -1.26380159e-03
      -4.08814201e-04 -2.29966681e-05 -1.30240398e-03 4.15941555e-04
      1.02803123e-03 -1.11732003e-03 -2.01140367e-03 -1.08612329e-03
      -3.27635178e-04 1.64938043e-04 3.87919688e-04 1.34673680e-03
      -2.93226476e-04 1.43943971e-03 1.22910191e-03 4.56179463e-04
      -4.36953531e-04 -1.60356076e-03 -1.14002801e-03 -5.86443581e-04
      -2.27386714e-04 1.30182737e-03 -1.33314042e-03 1.37857744e-03
      -6.14998920e-04 1.21173298e-03 2.43803766e-03 -8.45556788e-04
      -1.58787111e-03 -1.60000043e-03 -6.78189273e-04 -2.02202331e-03
      -2.41529546e-03 -1.80117623e-03 3.11650219e-04 1.47875084e-03
      2.97889812e-03 -7.67701538e-04 -9.14569304e-04 -1.12833397e-03
      -9.12696531e-04 -2.24148505e-03 -1.56533020e-03 -1.14630256e-03
      1.55000563e-03 1.70703314e-03 2.17441586e-03 -9.11419163e-04
      -1.82991114e-03 -1.88703567e-03 -1.31323375e-03 -2.38313340e-03
      -2.35513784e-03 -2.98642524e-04 1.14017166e-03 2.15247297e-03
      2.79252068e-03 -1.90313498e-04 -8.47757503e-04 -1.58659881e-03
      -1.36075076e-03 -2.69927760e-03 -2.39132717e-03 -1.41655863e-03
      1.10278442e-03 1.32935564e-03 2.60301144e-03 -1.32519705e-03
      -6.18357852e-04 -3.96051619e-04 -4.95763306e-05 1.28750062e-05
      1.09320979e-04 7.24209414e-04 5.60998102e-04 -8.60911561e-04
      -6.85010164e-04 -2.89126649e-03 -1.14146585e-03 -1.01929740e-03
      -1.14702969e-03 1.73779088e-03 3.11081676e-04 6.85720181e-04
      5.34974330e-04 1.29880419e-03 1.91015832e-03 2.58651911e-04
      5.93754929e-04 3.83229817e-05 -1.91093379e-04 -5.80719206e-04
      -1.15871744e-03 -4.07187385e-04 -1.34432164e-03 -1.47796585e-03
      -3.37239588e-04 -1.31644751e-03 -6.50431146e-04 -1.81900061e-04
      -1.44744245e-03 3.23569402e-04 -3.05183523e-04 -5.88017341e-04
      6.09318202e-04 -4.64788260e-04 -1.41424173e-03 -3.43203923e-04
      -2.41304879e-04 -1.58598250e-05 3.11622221e-04 1.90041016e-03
      3.90538800e-04 9.87470965e-04 6.25465647e-04 1.33209408e-03
      -4.53932371e-05 -8.63193767e-04 -6.05392619e-04 -5.99789433e-04
      2.42596798e-04 9.89700202e-04 6.98057993e-05 1.08823273e-03
      4.12962283e-04 1.57228787e-04 -2.22625351e-03 -3.62864463e-04
      -7.73269741e-04 -8.78079794e-04 -1.18963618e-03 -2.13250960e-03
      2.16678265e-04 -8.23450900e-05 6.25692133e-04 -1.10705628e-03
      -2.28548725e-03 -1.33767363e-03 -1.13921741e-03 -1.45841634e-03
      -5.48594864e-04 -1.69797661e-03 6.16267353e-05 7.41785043e-04
      1.04593870e-03 1.57992996e-03 2.29274225e-03 -8.46963667e-04
      -9.60446545e-04 -1.24113017e-03 -6.42438885e-04 -7.54150678e-04
      -1.23971445e-03 9.12812015e-04 1.17955205e-03 2.23779678e-03
      1.90855411e-03 1.12871279e-03 1.15304557e-03 9.50309506e-04
      -4.10478213e-04 -2.17449688e-03 -1.71832519e-03 -8.00853537e-04
      -5.05381497e-04 -1.62387383e-03 -1.98270063e-04 -1.67196535e-03
      -6.20377192e-04 -1.17419311e-03 -3.64877284e-04 -6.86508953e-04
      -3.42601532e-04 2.75485771e-04 -2.28744000e-03 -1.90373953e-03
      4.51101805e-04 -2.05478616e-04 4.42728575e-04 1.56868628e-05
      9.23978921e-04 -7.40822987e-04 -1.74020545e-03 -3.09233833e-03
      -3.22756532e-04 -3.57273268e-04 1.61398971e-03 1.06432347e-03
      2.03394680e-03 1.75824051e-03 -1.91934290e-04 -1.01053948e-03
      -1.53137359e-03 -1.45255239e-03 -1.90832012e-03 -1.54954696e-03
      2.51055044e-05 -5.55646198e-04 1.45612459e-03 2.35028588e-03
      2.14221014e-04 1.19563937e-03 -1.92159694e-03 -1.64016138e-03
      -3.79551435e-04 -5.06068282e-05 -3.48451256e-04 -6.17994636e-04
      7.49864674e-04 6.95509196e-04 -3.05140042e-04 -5.22453571e-04
      -1.71199930e-03 -1.45635416e-03 4.10681358e-04 2.71187600e-04
      -1.40097970e-03 -1.68818096e-03 8.69150565e-04 7.69122213e-04
      1.00732104e-04 1.61281403e-03 -6.98697637e-04 1.18248642e-03</_>
    <_>
      3.30344483e-04 7.63850578e-04 1.02714309e-03 -3.48061440e-04
      -2.19085417e-03 -1.14270078e-03 -3.22843203e-04 6.59839716e-04
      -5.37892411e-05 -1.36904782e-04 -6.30417664e-04 -2.27767159e-03
      -1.47549761e-03 8.59794440e-04 5.54938626e-04 1.30792148e-03
      -4.40977019e-05 8.66487608e-05 -1.64874305e-03 -1.80604134e-03
      -1.23655261e-03 -1.57174154e-03 -2.27895784e-04 3.20376479e-03
      1.36710331e-03 1.89217890e-03 2.35268497e-03 1.55180285e-03
      1.18680368e-03 -4.95975430e-04 -1.06444256e-03 -2.68539228e-03
      8.16176354e-04 2.85639125e-03 1.61225314e-03 8.21879366e-04
      6.71840156e-04 -3.56203585e-04 1.48277104e-04 -4.39381634e-04
      -4.46795166e-05 -1.80800981e-03 -3.67526925e-04 -4.65697289e-04
      -1.59661475e-04 6.65152857e-06 -9.00565297e-04 -2.13698004e-05
      -2.19373661e-03 -4.28164873e-04 -1.17654132e-03 -1.60284829e-03
      -1.70101866e-03 -1.28593377e-03 -4.49965228e-05 3.00126558e-04
      1.28032596e-04 2.78943538e-04 -1.59403984e-03 -3.69589165e-04
      5.29637909e-04 -1.32700964e-03 1.23362674e-03 1.98365538e-03
      1.52067433e-03 8.07273143e-04 3.64372012e-04 1.07675290e-03
      3.97278636e-04 1.46673294e-03 -1.86915160e-03 -2.85811373e-03
      -1.54326623e-03 -3.95330717e-04 2.30477168e-03 3.06204287e-03
      2.96211778e-03 2.26655323e-03 -2.78675550e-04 -4.92312072e-04
      -7.86910707e-04 -1.79600716e-03 -5.53970574e-04 4.66155820e-04
      7.94575084e-04 2.16341476e-04 -5.31461788e-04 -1.49029249e-03
      -1.54125318e-03 -7.74882908e-04 1.09914411e-03 4.65424208e-04
      1.36349944e-03 1.75795390e-03 -7.65396253e-05 -1.87990861e-03
      -3.47986381e-04 -9.34825104e-04 -4.87620680e-04 9.48301342e-04
      3.11972079e-04 -1.39787479e-03 9.95761831e-04 1.34405171e-04
      1.30573893e-03 1.51655369e-03 9.63778992e-04 -7.41740980e-04
      -4.83268348e-04 3.87910171e-04 2.39335466e-03 1.19357416e-03
      2.68510752e-03 -3.06162634e-04 -7.41328695e-04 -1.10535149e-03
      8.71809316e-04 -5.88987954e-04 9.22607200e-04 2.47694366e-03
      -2.73483503e-03 -3.60127562e-03 -2.76103406e-03 -1.91036801e-04
      1.32211496e-03 2.56733457e-03 3.43375443e-03 3.07246763e-03
      8.89832445e-04 -1.40264246e-03 -1.35610963e-03 -1.70105847e-03
      1.35010853e-03 1.87914446e-03 1.62569783e-03 7.29015039e-04
      4.41006385e-04 8.27090058e-04 -1.67440623e-04 -8.93290620e-04
      -8.96125624e-04 -3.55183450e-03 -2.62343837e-03 -2.19160202e-03
      -7.29917898e-04 1.12111193e-04 1.39882055e-03 3.79706384e-03
      9.56593081e-04 3.87999637e-04 2.76744540e-04 2.00356051e-04
      1.42715825e-03 2.77951767e-04 4.81387142e-05 -7.75498920e-04
      -7.91211147e-04 -1.31770084e-03 -7.97169458e-04 4.92826162e-04
      -9.01860127e-04 -1.62053003e-03 1.25104433e-03 1.92647392e-03
      1.47472939e-03 5.59290173e-04 -3.79490055e-04 1.04656059e-03
      -6.81142381e-04 -6.50197908e-04 -2.16366048e-03 -3.45220766e-03
      -1.18403928e-03 -7.27071485e-04 5.40125475e-04 1.56878168e-03
      2.27069808e-03 1.96767831e-03 1.10567416e-04 -1.12466840e-03
      -8.85555870e-04 1.00438460e-03 2.60997843e-03 2.38005258e-03
      3.45448672e-04 -8.18538421e-04 -2.40926049e-03 -1.48270559e-03
      -2.04941933e-03 -9.43923718e-04 -2.29133177e-03 -2.38893973e-03
      -2.82321661e-03 -9.38171797e-05 -5.01830131e-04 3.70722206e-04
      6.35420220e-05 1.96546270e-03 1.10326466e-04 -9.93042020e-04
      6.13401062e-05 -1.04098453e-03 -4.99507878e-04 -2.35998258e-03
      -1.08964473e-03 3.24506313e-04 -1.99011047e-04 7.55825720e-04
      3.07304610e-04 1.89691389e-04 1.11016072e-03 1.25074503e-03
      1.41858635e-03 -9.07489855e-04 -5.19802852e-04 -1.04511133e-03
      -3.09735886e-04 -7.54271692e-04 -7.12587731e-04 4.30343644e-04
      3.63855797e-04 -7.66701822e-04 -1.54390547e-03 -2.57516652e-03
      -2.74228328e-03 -1.52300764e-03 1.71420572e-04 2.58306926e-03
      6.38818194e-04 3.48567410e-04 -3.46283370e-04 4.39628755e-04
      2.46203761e-03 7.77017791e-04 2.19015146e-05 -9.60501435e-04
      -1.78201683e-03 -2.25787656e-03 -2.02661264e-03 -5.95531601e-04
      5.16587024e-05 -1.95948640e-03 -1.53754361e-03 -5.04940515e-04
      -2.04473967e-03 -7.97820103e-04 1.65676392e-04 2.60781520e-03
      6.60660589e-05 -1.28731539e-04 9.44254512e-04 1.85441889e-03
      1.77181989e-03 8.21111142e-04 -8.09660647e-04 -1.22864824e-03
      -7.27379753e-04 -3.81763384e-04 -2.63557158e-04 1.09859207e-03
      3.51311581e-04 -9.92031273e-05 -6.37043617e-04 -5.53683531e-05
      -1.00739230e-03 -4.47270810e-04 9.44285479e-04 3.81844671e-04
      8.70559423e-04 6.82865502e-04 1.20357960e-03 1.62873114e-03
      1.16738724e-04 4.11401998e-04 9.23876814e-06 -4.06389096e-04
      -3.87566630e-04 -1.09308469e-03 -1.68267451e-03 -3.17323895e-04
      -4.08972672e-04 6.71428978e-04 3.07660294e-03 2.24409858e-03
      2.88285111e-04 -2.16955727e-04 -4.53138287e-04 -1.01015647e-03
      -5.77897939e-04 -2.78705120e-04 -1.89977256e-03 -3.03036743e-03
      -7.13011075e-04 9.28278721e-04 4.17800067e-04 1.48173049e-03
      2.28635850e-03 2.33079819e-03 -1.14240087e-04 -1.04399130e-03
      -1.30272485e-04 -5.19099645e-04 2.06457742e-04 4.71717824e-04
      -6.20950537e-04 -1.15094380e-03 4.40513046e-04 -6.81101636e-04
      -8.88446521e-04 -3.69248679e-04 -2.08638536e-04 -1.65176101e-03
      -1.22471817e-03 -9.44750034e-04 -8.60300206e-04 -3.22177948e-04
      1.57565728e-03 3.35671939e-04 2.31807120e-04 1.97297748e-04
      1.09464163e-03 2.88882758e-04 1.39753945e-04 -7.17654650e-04
      -1.77100603e-03 -7.82586576e-04 7.16653478e-04 1.53571228e-03
      -3.81333783e-04 -6.98162112e-05 1.20092183e-03 2.32347427e-03
      1.09454000e-03 7.65025499e-04 4.93788366e-06 -1.72561186e-03
      -2.63748923e-03 -1.22843811e-03 -1.49163313e-03 -1.32022295e-04
      2.33485698e-04 -1.61126227e-04 -1.57151860e-03 -1.64010038e-03
      -1.43543293e-03 -9.45624022e-04 5.92209515e-04 3.86405824e-04
      -2.96675018e-04 5.51214471e-05 1.15154183e-03 2.27617589e-03
      2.60944762e-05 -2.30023800e-03 -1.53673859e-03 -2.23693461e-03
      -1.93503266e-03 -5.56171872e-04 8.08449913e-05 -1.35746915e-04</_>
    <_>
      7.56999711e-04 1.31416571e-04 4.57158836e-04 2.81281595e-04
      -1.26425328e-03 -1.30225008e-03 -4.01816302e-04 2.86740111e-03
      7.10298773e-04 3.47701978e-04 -3.96276009e-04 9.31421673e-05
      2.32794511e-04 6.71449408e-04 -7.16960465e-04 -7.36442977e-04
      -2.22496199e-03 6.00510568e-04 -4.88134829e-04 -8.86922586e-04
      -2.94273486e-03 -2.02254462e-03 -9.24042834e-04 3.80755588e-03
      3.63432616e-03 3.16541386e-03 2.74609402e-03 1.66973099e-03
      -8.39543354e-04 -2.79139448e-03 -1.47129537e-03 -1.27855421e-03
      5.96724160e-04 2.29272689e-03 1.65731623e-03 3.35619785e-04
      -1.13676488e-03 -1.85460904e-05 -1.66207959e-03 -2.51265476e-03
      3.12697989e-06 -1.26334000e-03 1.66164653e-03 -6.30748342e-04
      -8.07540375e-04 -1.60228217e-03 -2.84442632e-03 2.28951481e-04
      -6.69579720e-04 3.19263170e-04 -1.27881218e-03 -1.16995419e-03
      8.36175808e-04 -1.61680020e-03 -1.81959220e-03 -5.45189483e-04
      -3.64960259e-04 5.58102969e-04 -1.19755208e-03 3.93294467e-05
